0.48029208
0.31555831
0.42492124
0.58319569
0.34870419
0.44900352
0.55637670
0.33498833
0.61401820
0.48381260
0.15099095
0.27984473
0.41709170
0.57757163
1.05329883
0.93850219
0.69082958
0.63355714
0.53362644
0.63484627
0.99195111
1.18605840
0.62994075
0.42283288
0.17286947
0.56212640
0.73284179
0.98397207
0.64840478
0.39494357
0.46735278
0.71430045
1.03098750
1.21858096
0.65280944
0.39892602
0.35231608
0.42188790
0.88170099
0.75750899
0.76548004
0.66441405
0.53278780
0.82633048
0.49612358
0.70729673
0.53844887
0.14443350
0.49627930
0.57431424
0.71745491
0.88494706
0.85524529
0.84541768
0.73902321
0.63917953
0.64820063
0.39779091
0.19223012
0.30127850
0.12184878
0.56155366
0.42606208
0.33762705
0.25810605
0.43072620
0.39753112
0.37699497
0.26648486
0.55092907
0.47229180
0.15066321
0.38414654
0.45116511
0.33810756
0.16392101
0.38284767
0.60087091
0.87973404
0.56244087
0.34861681
0.36276400
-0.16062737
-0.21686284
0.20293944
0.20535658
0.49311939
0.55719334
0.89642161
0.19543681
0.22551712
0.29203039
0.60466361
0.45415372
0.58499008
-0.30755943
-0.02321389
0.53873378
0.84666252
0.76824397
0.82914293
0.30144447
0.55704880
0.66929269
0.77955502
0.81245840
0.34043139
-0.52229083
0.48832703
0.56233275
0.74253154
0.61505961
0.55218476
0.31079087
0.42130244
0.63824010
0.56707460
0.11111607
0.58017439
-0.17048112
0.33674124
1.07756245
0.90858239
0.48321390
0.83951694
0.18773323
0.87099469
0.65480369
1.06623733
0.73588634
0.21331128
0.01530225
-0.15411896
0.10620615
0.38386625
0.00907697
0.32603547
0.19959040
0.46716571
0.37995407
0.04243233
0.09297046
0.73724902
-0.03663162
0.43952194
0.31247875
0.40652633
0.27904364
0.13018875
0.19451937
0.65531862
0.67503387
0.45425457
0.09065502
0.10496168
0.09361414
0.37655231
0.52436417
0.61686164
0.45672879
1.07695687
0.66667837
0.04579068
0.09648754
0.53007221
0.54255700
0.62982243
0.11295335
0.08023699
0.56201398
0.74502772
0.73164606
0.40975139
0.20841795
0.92272443
0.61301988
0.55466849
0.68191332
0.45156747
-0.18910731
0.28493267
0.63990551
0.59996617
0.44552654
0.30727252
0.12571284
0.46443859
0.46459112
0.65636355
0.25735146
0.11081696
-0.34163889
0.01770498
0.24102092
0.74904585
0.44289070
1.00570071
0.03500236
0.33717757
0.53159279
0.57058060
0.12206426
0.14616801
-0.26557097
-0.19298147
0.26747790
0.10554452
-0.04671919
0.11033705
-0.05489715
0.50721383
0.32779878
0.09145587
-0.19891199
0.43662399
-0.10965516
0.69358498
0.51189160
0.20093474
0.27102551
0.49895296
0.44624606
0.31032452
0.43278149
0.52953649
0.45164680
-0.18330003
-0.09562050
0.45578039
0.88382798
0.90154374
0.56033796
0.69349384
0.67218655
0.77228212
0.57688820
0.75959980
0.47018629
0.76971096
0.03028677
0.41281068
0.73661441
1.11895323
0.63591319
1.13151658
0.89346218
1.07879055
0.58575046
0.54916316
0.16129468
0.26600614
-0.10212982
0.22087771
0.56264389
0.56556678
0.69715428
1.01382637
0.91788810
1.02819347
0.69256806
0.40050507
0.36448795
0.52156270
0.23802152
0.39747837
0.27674255
0.50582165
0.52106935
0.63424224
0.51580417
0.44000292
0.24840035
0.73853719
0.31675094
0.38698575
0.05394871
-0.31665859
-0.11205831
0.44152358
0.48442164
0.16785532
-0.01904089
0.18574047
0.01936250
0.19010714
0.10744850
0.36800101
0.08825463
0.80878639
0.73279417
0.39798155
0.26819453
0.49035949
0.75916195
0.42297176
0.45574507
0.57502258
0.50340027
0.30105755
0.05146469
0.06798588
0.82947373
1.29609764
0.61476302
0.88591427
1.02305984
0.65014517
0.29266617
0.74630028
0.44637859
0.26065201
-0.23117901
0.29193413
0.55230260
0.53867060
0.09204631
0.43388411
0.20334844
0.86285537
0.28873116
0.83779782
0.48831084
0.31832567
0.07193515
-0.05751442
0.46355623
0.72688538
0.05446147
0.63978702
0.58867556
1.15651274
0.65633869
1.09155643
1.12172723
0.86250907
0.23056814
0.13743307
0.11166517
0.39321637
0.55579329
0.42210093
0.09576957
0.54350871
0.36980328
0.90694445
0.50844085
0.51948613
-0.00375021
-0.08655041
0.10219286
0.17455344
0.15512137
0.28219369
-0.25229403
0.10189638
-0.04883661
0.12721369
0.34870780
0.71839863
0.18514358
0.21477319
0.41621789
0.00669325
-0.17626965
-0.04218802
0.17250252
0.24771887
-0.15911214
-0.04806165
-0.00817566
-0.17163326
-0.22200453
-0.27392924
-0.23883399
-0.05232592
-0.40909228
0.02296860
-0.20947859
0.00890330
-0.35883844
0.07932643
-0.19286980
0.08943475
-0.29552540
-0.00650084
0.11037866
-0.07000469
-0.35578644
0.12499003
-0.21350014
-0.33089644
-0.32587308
0.05250555
-0.29185805
0.04874900
-0.43135613
-0.23089565
-0.20942117
0.15640262
-0.02855258
-0.12793826
-0.18425873
0.26726329
-0.15200976
-0.18402769
-0.49241385
0.11384634
-0.54374629
0.00889862
0.10013649
-0.07337253
-0.05514392
-0.15352027
-0.49608460
-0.17558718
-0.49630374
0.14237957
-0.26338720
0.02439130
-0.55825847
-0.13970722
-0.09872053
-0.07592106
-0.23319912
0.06518601
-0.17068037
-0.03829599
-0.07587603
-0.29465064
-0.31322896
0.30379489
-0.14794156
0.24720123
0.38591138
0.15534876
0.17587510
0.12771687
0.12749080
0.14459534
0.12728260
0.49880907
0.36227712
0.16305704
0.27318206
0.64385766
0.69224858
0.58259237
0.36164060
0.30866513
0.49004570
0.56069571
0.34037963
0.76225203
0.97315377
0.59998852
0.39808083
0.42320088
0.75438184
0.92797691
0.80326080
0.79803145
0.80088151
0.48429814
0.60427678
0.55634111
0.87756342
0.50666440
0.24210300
0.53803974
0.78492534
1.10713267
1.15891349
1.05808926
1.13954580
0.84783226
0.56519234
0.79053581
0.63333297
0.29439220
0.30122399
0.61798370
0.87529558
1.15407264
1.15368617
1.12723804
0.89151347
0.94762456
1.01501369
0.94823873
1.05595016
0.59116757
0.44613573
0.10364406
0.52134871
0.51096046
0.58108050
0.32949063
0.45038015
0.51095021
0.74859113
0.46478528
0.55798566
0.43711618
0.16507843
0.30604413
0.63757491
0.74313837
0.46113467
0.54365575
0.46096799
0.45695204
0.28903374
0.48219389
0.74578297
-0.00035949
-0.15641545
0.48408017
0.68998438
0.85177523
0.58772624
0.56862956
0.76722401
0.88257122
0.70739758
0.56757087
0.69328249
0.38838693
-0.35769528
-0.00039703
0.56093907
0.93449503
0.74234736
0.84718961
0.31389093
0.33981705
-0.03478556
0.82839620
0.61930317
0.85079509
0.10821268
0.10598940
0.77204603
0.52445412
0.14239657
0.39384416
-0.05607489
1.01656461
0.22218201
0.83838624
1.23428929
0.39140698
-0.12545495
0.31043974
0.33723995
0.39823917
-0.24045314
0.36096749
0.00144309
0.31644747
0.56243509
1.36137700
0.60524219
0.56331784
-0.10646550
-0.36666334
0.08283446
0.20463391
-0.04603601
0.27401063
-0.07765048
0.34883747
0.20197722
0.12391357
-0.05457981
0.76782352
0.05870039
0.30419686
0.36007118
0.46836022
0.47089559
0.69765341
0.51894462
0.62539148
0.40022221
0.30272344
0.78338045
0.28343517
0.06065009
0.35678297
0.14421819
0.17016630
0.72226834
0.74711174
0.29882333
0.56800306
0.64756256
1.01372862
0.80248797
0.52516556
-0.36875942
-0.04866708
0.36404735
0.98402959
0.72222656
0.98948699
0.19583654
0.57447153
0.20457244
0.58635384
0.54769588
0.15251336
-0.30636573
0.26868767
0.59999067
0.68629539
0.32819250
1.02134752
0.82035357
0.87986678
0.97348571
0.31400043
0.82171136
0.95141792
-0.24884087
0.38266101
0.66868585
0.53285646
0.12775800
0.14593790
0.61296237
1.19170439
0.67249972
0.93839943
0.40113461
-0.01107052
-0.52904850
-0.20969300
-0.10696949
0.33393610
0.25146487
0.43597949
0.15611234
0.07560845
0.19852829
0.26585615
-0.09988350
0.47770405
-0.12432489
0.50473136
0.40455016
0.41405886
0.49964502
0.58536243
0.68130141
0.93388796
0.81284958
0.57192111
0.53305668
0.30551296
0.11793645
0.55823296
0.45448518
0.48871645
0.84289217
0.86888498
1.01942062
1.21538770
0.59402895
1.22197735
0.82836437
0.57196093
0.05217664
-0.06962484
0.49661213
0.73179173
0.75560176
0.91062450
0.40788093
0.90125418
0.74406332
0.82452804
1.04911065
0.47358537
-0.09798098
0.61901432
0.66581327
0.52908182
0.05764295
0.08453805
0.42816970
0.68073887
0.32022989
0.85835785
0.27168310
0.58010226
-0.17426269
-0.15587445
0.51206791
1.22716415
0.52404046
0.47811675
0.45374981
0.81318092
0.35597891
0.71073443
0.40527901
0.51291466
0.19264036
-0.03865637
0.05079523
-0.14234725
0.19425152
0.56595385
0.16453981
0.11900030
0.22295675
0.57922280
0.48475823
0.43476871
-0.04372111
0.37150562
0.32369614
0.38186342
0.24293444
0.63013798
0.63314885
0.24087921
0.36077026
0.70465839
0.27065751
-0.11294857
-0.07227343
0.16891825
0.11098871
0.52792656
0.54737526
0.66321981
0.97117686
1.17228723
0.32982469
0.24490491
0.21347962
0.72957766
-0.19631688
-0.21704030
0.38560089
0.99583054
0.90059596
1.26741982
0.53950608
-0.07020681
0.08415268
0.79544288
0.03183315
0.44108713
-0.23964666
0.55125207
0.74531096
0.51503605
0.34468633
0.33418134
0.42913613
0.75883496
0.40031883
0.47604200
0.06357864
0.36963809
0.05326955
0.10236724
0.39962697
1.09913206
0.57605588
0.23691788
0.17517008
0.90816414
0.32360440
0.67082494
0.68313253
0.40249309
-0.06557151
0.05266500
0.37493125
0.01128246
-0.06765530
0.33900923
-0.02000141
-0.22591475
-0.09229829
0.41254964
0.14181639
0.61258149
-0.04043648
0.16203186
0.03519832
-0.11967374
-0.04710990
-0.00995681
0.10965090
-0.00973501
-0.19512966
0.14203645
0.27359450
-0.09295082
-0.28565225
-0.01825949
-0.15826026
-0.07220495
0.03657985
-0.07492081
-0.22899960
0.26246664
-0.26573765
-0.26435146
-0.21075372
0.27948391
-0.32266960
-0.19131893
0.02228554
0.07541659
-0.02234930
0.26981911
-0.48316085
-0.33392566
-0.65030372
-0.04833039
-0.17606045
-0.03331245
-0.28978547
-0.01616095
0.22712675
-0.04458316
-0.18835799
-0.19698972
-0.51983714
0.37802792
-0.05777723
0.05712829
-0.11490343
-0.19754241
-0.40991864
-0.08240404
0.13814668
-0.06135742
-0.50584048
-0.07154095
-0.41355827
-0.01495877
-0.16653857
-0.23340255
-0.46827811
0.19482657
-0.29863623
-0.22547321
-0.15819988
-0.00825183
-0.32885575
0.09894750
-0.07916135
-0.22966953
-0.24428257
0.04948721
-0.28568798
0.19503707
-0.11221154
