0.37108865
0.21695349
0.32164943
0.18651962
0.29189262
0.16929685
0.23948188
0.14330493
0.35908738
0.21025786
0.27014303
0.16262317
0.36443418
0.29068410
0.31952146
0.29492292
0.28988355
0.26671860
0.22734907
0.09506841
0.35188484
0.27227306
0.25414696
0.07997424
0.13307112
0.07505429
0.24081205
0.13609467
0.20417620
0.11794356
0.50808161
0.29877791
0.25131190
0.15228418
0.35518587
0.20706965
0.13721545
0.18132572
0.24766275
0.32047457
0.20390835
0.19999406
0.49484733
0.34932414
0.23405816
0.04639149
0.35021201
0.29469883
0.38616720
0.22760397
0.39011309
0.23126689
0.03512363
0.01949304
0.13086924
0.07609805
0.24444926
0.14725843
0.23507148
0.13772070
0.37487608
0.25095579
0.37552461
0.21595974
0.03697243
0.05677138
0.12950620
0.11412577
0.22973040
0.06948504
0.23016992
0.17603825
0.44581911
0.25993747
0.31466261
0.18455975
0.37043065
0.21779279
0.34828180
0.21029942
0.39727929
0.23419076
0.32743645
0.19704102
0.43950567
0.36906657
0.30760369
0.22976564
0.36087549
0.25578937
0.32614177
0.08519869
0.38557419
0.25712597
0.30821952
0.09896207
0.13660491
0.08272313
0.20100692
0.11705335
0.32811975
0.19013688
0.16886880
0.10017068
0.23582742
0.13205095
0.20024566
0.11202950
0.12735377
0.02672113
0.19850519
0.17047173
0.32626972
0.30464166
0.16240668
0.09174538
0.24545522
0.34829590
0.20865291
0.29848456
0.09071596
0.05221061
0.13867216
0.07952353
0.33444262
0.19551805
0.46965072
0.27721640
0.41892648
0.24906673
0.17923133
0.10057552
0.09105378
0.09425025
0.13987333
0.15215762
0.32847071
0.26227838
0.45494807
0.29375219
0.40155035
0.21172374
0.18603599
0.25865805
-0.25116605
-0.22062521
-0.21077098
-0.23723722
-0.19142033
-0.21430448
-0.17701931
-0.04331075
-0.24449700
-0.20384255
-0.20408285
-0.01966119
-0.33955753
-0.27932689
-0.32697016
-0.23160173
-0.29602194
-0.21040058
-0.14882129
-0.20289856
-0.32172894
-0.27249750
-0.14715493
-0.23554623
-0.07762874
-0.16165599
-0.14171697
-0.28433728
-0.13173026
-0.16428068
-0.35174105
-0.24995901
-0.19437590
0.01169853
-0.23774463
-0.22880748
-0.18034510
-0.08130711
-0.32053924
-0.14901158
-0.21726806
-0.14388855
-0.42792428
-0.39435127
-0.11561304
-0.22597860
-0.33752340
-0.26332685
-0.26968804
-0.17440425
-0.27850434
-0.13596895
-0.01905194
-0.05221000
-0.08670326
-0.09024004
-0.18513732
-0.01470454
-0.16041172
-0.13108544
-0.31418833
-0.30328551
-0.28885552
-0.31557325
-0.05437324
-0.01928069
-0.12857385
-0.09566746
-0.13096811
-0.21384823
-0.20894235
-0.17892519
-0.29854432
-0.28630286
-0.21567251
-0.16917691
-0.25626802
-0.18342268
-0.26600331
-0.00617331
-0.27761799
-0.17829727
-0.24703887
-0.02600086
-0.42301822
-0.33072361
-0.27522120
-0.24094370
-0.31282961
-0.28724211
-0.17611057
-0.30805886
-0.32243037
-0.31226981
-0.17990431
-0.28500640
-0.10541364
0.00474829
-0.13394821
-0.13344391
-0.21439996
-0.24606337
-0.12083691
-0.05699676
-0.13322401
-0.31534401
-0.11268104
-0.27069825
-0.06398657
-0.12246655
-0.19381981
-0.14811793
-0.33642465
-0.23533444
-0.12371699
-0.13702767
-0.34008762
-0.13749813
-0.29085702
-0.11608212
-0.05765795
-0.07876419
-0.08683412
-0.12905674
-0.22631428
-0.19915920
-0.32983908
-0.19984090
-0.30233163
-0.12439694
-0.10222794
-0.23318626
-0.10063057
-0.06261081
-0.15997039
-0.09373212
-0.30625334
-0.25166917
-0.37340498
-0.37165397
-0.29484975
-0.34381962
-0.25387222
-0.10598022
0.08667640
0.04961802
0.01222443
0.00738312
0.09396394
0.05693000
0.05980127
0.03570251
0.22796948
0.12886237
0.21455538
0.12181168
0.08763612
0.09757172
0.01144312
0.00294068
0.08753213
0.01757280
0.05696743
0.02605159
0.23439381
0.30266333
0.21933629
0.26991713
0.26446378
0.16043064
0.38905704
0.22978626
0.32480171
0.19392438
0.35878789
0.21186766
0.17892730
0.10221396
0.13472904
0.07998742
0.24588592
0.04384791
0.37654155
0.23937871
0.30938280
0.14117236
0.34734347
0.22190411
0.18141578
0.20740716
0.12941156
0.07128776
0.33574918
0.19705172
0.22633134
0.12699598
0.15722001
0.09225698
0.32392660
0.19328983
0.20860755
0.12520209
0.48271176
0.28431723
0.32792208
0.24167965
0.23494720
0.32690215
0.15359217
0.11361104
0.30881587
0.14393961
0.19715318
0.07235681
0.46904832
0.31901512
0.30757836
0.18101999
0.17727107
0.10724857
0.47027841
0.27598473
0.28758207
0.16747849
0.30925900
0.18367471
0.25204071
0.15080211
0.29921407
0.20730808
0.16550520
0.03750002
0.45936850
0.33914638
0.28398049
0.24363142
0.29688561
0.16165707
0.23931442
0.10055884
0.12238080
0.06951262
0.23695061
0.13823278
0.27161175
0.15727726
0.15727170
0.09000784
0.37364274
0.22533718
0.39647323
0.23030485
0.12503132
0.15305598
0.23341103
0.19398488
0.27035323
0.25539851
0.15906671
0.17767404
0.35054648
0.09914564
0.39290780
0.35240516
0.31723341
0.19185886
0.27012515
0.16292736
0.40188444
0.23867884
0.19946371
0.12152705
0.14945315
0.08613159
0.28205195
0.17030984
0.29633641
0.06897841
0.25338066
0.07112214
0.38582382
0.21029533
0.18419757
0.01826439
0.14973509
0.15203437
0.26411900
0.06896040
-0.05387732
-0.08330707
-0.00934454
-0.00016343
-0.07263925
0.00413062
-0.04383062
-0.01329068
-0.13427539
-0.26840228
-0.12878458
-0.23661546
-0.10186296
-0.05798348
-0.00614356
-0.01082480
-0.04339973
-0.08443636
-0.03891924
-0.05010041
-0.30289745
-0.14124095
-0.27372345
-0.13658428
-0.20535031
0.01763380
-0.27387729
-0.16130248
-0.23811164
-0.07184052
-0.25238380
-0.14998363
-0.11025342
-0.17838410
-0.09671577
-0.04342907
-0.11788551
-0.23902088
-0.30631459
-0.30884677
-0.21113865
-0.27219197
-0.28335637
-0.28453690
-0.21482797
-0.11823109
-0.09725421
-0.10979233
-0.23068748
-0.17678426
-0.12904848
-0.29475588
-0.10795207
-0.08325388
-0.23696223
-0.07501724
-0.15588477
-0.02653221
-0.33625376
-0.22370137
-0.29101756
-0.25794229
-0.32079348
-0.13376421
-0.13660854
-0.12067787
-0.21296175
-0.27068859
-0.12168980
-0.17929837
-0.39677939
-0.37780792
-0.21360591
-0.14686072
-0.13633871
0.00313781
-0.32301861
-0.24829300
-0.19168326
-0.19063678
-0.22232193
-0.09756992
-0.18622105
-0.04612264
-0.25588980
-0.23974766
-0.08518105
-0.15823293
-0.40810204
-0.36114153
-0.27709901
-0.21197794
-0.22173566
-0.25250277
-0.15700941
-0.21341541
-0.07360344
-0.13399710
-0.15902530
-0.14984272
-0.17695670
-0.20713632
-0.09765660
-0.15183608
-0.28412357
-0.01491358
-0.26159662
-0.28051338
-0.15544380
-0.07812750
-0.22318138
-0.17630932
-0.28093454
-0.19401759
-0.18530838
-0.10505438
-0.19481860
-0.32859665
-0.39457804
-0.28819957
-0.24368154
0.00361221
-0.20549682
-0.01018726
-0.28887343
-0.12702921
-0.15726833
0.02915373
-0.09551363
-0.12629199
-0.21542561
-0.00496000
-0.15385637
-0.28270626
-0.14042224
-0.23769489
-0.28831494
-0.32807529
-0.07765961
-0.18389645
-0.16332403
-0.10394335
-0.14259315
-0.24948689
0.23282956
0.13706441
0.38243479
0.23030600
0.32027605
0.19135866
0.30483532
0.18237028
0.34517366
0.20253916
0.32173961
0.19167107
0.22641098
0.15590063
0.35958862
0.11084604
0.30474755
0.13537580
0.28949115
0.12218816
0.33723104
0.24969350
0.30747756
0.15178132
0.20558336
0.11491888
0.36582896
0.22088833
0.47459945
0.28041661
0.36058894
0.21124277
0.28545606
0.16613641
0.47061834
0.27830237
0.21444517
0.30916113
0.34258878
0.08967163
0.45907760
0.28900629
0.35310474
0.27044278
0.28212845
0.24474990
0.45466036
0.27989706
0.33795366
0.19926488
0.20553483
0.12216179
0.43269005
0.25494134
0.17761810
0.10782356
0.18866250
0.11143421
0.34129575
0.20233886
0.32788754
0.21744351
0.19709536
0.10488760
0.42023569
0.28351548
0.16496062
0.02732067
0.18257989
0.11592014
0.32850456
0.18860197
0.23595271
0.13427392
0.23584847
0.14271733
0.41984555
0.24663271
0.17001200
0.09756866
0.03908853
0.02282374
0.48247808
0.28420517
0.24046293
0.28801250
0.22012436
0.04906114
0.40952334
0.29590291
0.17131129
0.18449910
0.03845661
0.03143385
0.46876046
0.31814292
0.42901301
0.25433561
0.24538565
0.14412431
0.16709973
0.09456452
0.29415312
0.16903906
0.33759296
0.20038487
0.19347736
0.10989729
0.41295063
0.23726757
0.23941033
0.17362596
0.17154817
0.21877432
0.29586172
0.31285122
0.32436654
0.17978002
0.19766375
0.24192695
0.37382531
0.22473796
0.12473825
0.07369895
0.27131900
0.16050494
0.28766343
0.16601622
0.15309051
0.08914880
0.22606482
0.13180777
0.35240564
0.11911771
0.12066463
0.07602961
0.26197815
0.15970288
0.28765300
0.28610259
0.15118785
0.12986636
0.22286499
0.18716383
-0.16186027
-0.11007079
-0.28929767
-0.02529459
-0.23541182
-0.06673909
-0.22513726
-0.05638928
-0.23696442
-0.18306351
-0.23394027
-0.08394773
-0.19292231
-0.18173447
-0.20652139
-0.33403710
-0.20528656
-0.26933622
-0.19032761
-0.25798088
-0.30012107
-0.26488182
-0.21822159
-0.26670492
-0.11524571
-0.28082660
-0.27937600
-0.00667754
-0.33457986
-0.19355080
-0.24599844
-0.20151609
-0.18979511
-0.19235356
-0.33285192
-0.18476939
-0.30067724
-0.11851089
-0.18512052
-0.32353538
-0.37138087
-0.37748834
-0.32081822
-0.27436328
-0.27726915
-0.20969661
-0.36318547
-0.37595722
-0.23636883
-0.15029532
-0.14816761
-0.06211460
-0.30180290
-0.19790606
-0.13825998
0.01412199
-0.13283505
-0.07804790
-0.24370711
-0.11859737
-0.27330473
-0.26595318
-0.14542836
-0.16843833
-0.35380736
-0.33925423
-0.07755644
-0.16105092
-0.14841726
-0.14980586
-0.25245586
-0.27616510
-0.14305177
-0.25076556
-0.18152444
0.00506378
-0.28948700
-0.21430647
-0.10678873
-0.15603270
-0.02632506
-0.02411185
-0.33620682
-0.22282454
-0.29431659
-0.15236412
-0.11269724
-0.21072252
-0.35911381
-0.32409403
-0.19456875
-0.11541608
-0.03638634
-0.02922352
-0.39604184
-0.37780064
-0.30631179
-0.14928453
-0.16908564
-0.12598373
-0.09891897
-0.19344375
-0.18579225
-0.26314849
-0.24215639
-0.11005559
-0.11637046
-0.21179263
-0.31748649
-0.34709585
-0.21040723
-0.18925558
-0.21968427
-0.10428079
-0.33180225
-0.20124948
-0.24456781
-0.27482653
-0.24571306
-0.12352661
-0.28104758
-0.03625389
-0.08792572
-0.05094617
-0.19216268
-0.10474265
-0.18489558
-0.23609251
-0.10201221
-0.10166756
-0.15138212
-0.14519751
-0.21005434
-0.32388312
-0.09766305
-0.09919743
-0.20811903
-0.21715201
-0.30940008
-0.20166466
-0.14764099
-0.11280146
-0.21451706
-0.16769795
0.03752045
0.02146035
0.37660554
0.21968941
0.09380842
0.05502855
0.33498418
0.19413361
0.38607651
0.22938797
0.38289899
0.22818014
0.03797941
0.04275040
0.37101689
0.30875441
0.09168757
0.06830493
0.33305025
0.31048173
0.37041572
0.19928613
0.36574885
0.17854373
0.25430593
0.14895859
0.14916857
0.08292350
0.09620386
0.05556922
0.10452471
0.06093127
0.17365614
0.09769925
0.32065338
0.19241101
0.24907698
0.19131194
0.15669341
0.23724680
0.09608597
0.09433145
0.10307419
0.08688022
0.17964891
0.24352729
0.30313894
0.11230934
0.27308351
0.16006467
0.42600408
0.25421309
0.43118072
0.25560519
0.15280867
0.09175885
0.08635031
0.04955789
0.30607727
0.18580040
0.26721331
0.20242664
0.40610132
0.18894129
0.41507411
0.23890206
0.14430834
0.05170664
0.08700529
0.09365022
0.28427652
0.04720994
0.12896784
0.07305221
0.26048750
0.15694565
0.20843175
0.12470473
0.15955094
0.09276434
0.18764235
0.11386456
0.21045104
0.12419587
0.13224132
0.16696386
0.24474192
0.07332377
0.19791947
0.08330239
0.15791674
0.13946328
0.17437580
0.03010533
0.20392253
0.13233627
0.28327948
0.16588934
0.32940653
0.19994956
0.16312337
0.09439258
0.15445217
0.09351576
0.27255151
0.15977897
0.26931196
0.15853684
0.27755085
0.21424261
0.30597410
0.05116222
0.16252053
0.15519199
0.14402819
0.03063484
0.26663065
0.20129891
0.26189816
0.18045276
0.37292731
0.22444940
0.18430355
0.11028563
0.28344265
0.17201400
0.46548235
0.27310020
0.39089495
0.23405653
0.15528481
0.09102103
0.35096109
0.11177291
0.17496817
0.07318692
0.26336429
0.04502005
0.45485011
0.33765197
0.37074211
0.15105584
0.15194046
0.11503178
-0.02323953
-0.03661186
-0.25268161
-0.23862655
-0.06432837
-0.05022828
-0.21897134
-0.25064024
-0.27795240
-0.11910164
-0.27874708
-0.09766784
-0.04448470
-0.02497423
-0.35505375
-0.28011611
-0.08190280
-0.07187844
-0.34305766
-0.24038818
-0.27489403
-0.31584027
-0.25811526
-0.31791398
-0.17339693
-0.14274244
-0.08153545
-0.21760187
-0.06205290
-0.07751095
-0.06993877
-0.06750061
-0.10019122
-0.21834663
-0.23943682
-0.04194878
-0.22669962
-0.19335282
-0.22798842
-0.08282831
-0.10244707
-0.06777348
-0.09944532
-0.07745419
-0.24059121
-0.10441682
-0.18787834
-0.27533549
-0.18668622
-0.15005779
-0.31169271
-0.09827443
-0.30778924
-0.15050527
-0.11439742
-0.01804764
-0.05424815
-0.07918782
-0.23823306
0.02419619
-0.24115027
-0.20836642
-0.27979982
-0.35607687
-0.31942174
-0.34874308
-0.08815504
-0.13165623
-0.09877864
-0.05863488
-0.13374662
-0.27749634
-0.07665022
-0.14728023
-0.19740032
-0.01489821
-0.15397742
-0.03829502
-0.10565291
-0.11036570
-0.14586243
0.01358831
-0.14768744
-0.09030443
-0.16811906
-0.08094559
-0.13901362
-0.22805493
-0.12995145
-0.17645463
-0.15699974
-0.11655463
-0.08287791
-0.16983613
-0.16785938
-0.16636597
-0.19296935
-0.16021970
-0.25633413
0.02566147
-0.10598447
-0.12633464
-0.11911762
0.00491613
-0.18644087
-0.14898019
-0.18720244
-0.12745051
-0.25338978
-0.21510442
-0.14420977
-0.29856056
-0.17009474
-0.11608043
-0.07266750
-0.13836327
-0.24012317
-0.20813993
-0.22324571
-0.21018043
-0.28151140
-0.02860881
-0.13622910
-0.03335622
-0.22040558
0.02101349
-0.31940740
-0.24786410
-0.28960502
-0.06628283
-0.10616841
-0.08524772
-0.20418566
-0.32483190
-0.11454925
-0.15614368
-0.12484486
-0.25665691
-0.40543282
-0.35697794
-0.23978320
-0.33218962
-0.13706940
-0.11850280
0.12306342
0.06933402
0.41727373
0.24606870
0.40980688
0.24459422
0.13327906
0.07504173
0.20731734
0.12436684
0.07947861
0.04426074
0.12707633
0.16981691
0.40476185
0.26749712
0.39054987
0.18044762
0.13773876
0.18525562
0.19607870
0.07361965
0.08330184
0.12421090
0.21082485
0.11921345
0.24055286
0.13525017
0.04597728
0.02553849
0.10127980
0.05914401
0.24109218
0.13918196
0.18975465
0.11201780
0.21666540
0.27871332
0.24905716
0.33973590
0.04834540
0.07370085
0.09962609
0.08125295
0.24098136
0.23857896
0.18378317
0.11831863
0.37870377
0.21946955
0.12536694
0.07420389
0.51256567
0.30109546
0.25766081
0.15503114
0.24443410
0.13744277
0.42327699
0.25237882
0.37651962
0.35102919
0.12095515
0.07266333
0.49997446
0.36137643
0.24258909
0.07846551
0.25305092
0.34492585
0.40399399
0.19354367
0.45364431
0.26879743
0.37737638
0.22616707
0.45706657
0.26672855
0.34392294
0.20270598
0.13568681
0.07581297
0.09905877
0.06014571
0.43699419
0.25483823
0.35743251
0.14007166
0.45003894
0.37182757
0.33386594
0.22349045
0.14161776
0.20501789
0.09197149
0.01490503
0.38344002
0.23036277
0.36294156
0.21506257
0.42627877
0.25293878
0.22572973
0.12890473
0.11211033
0.06601402
0.23675726
0.13332833
0.36183918
0.12654600
0.34959880
0.20362830
0.40978542
0.22945964
0.22897759
0.26293921
0.10898210
0.07462418
0.24462242
0.32841471
0.30589339
0.17482889
0.22901459
0.12855646
0.24287537
0.14754573
0.22428416
0.13319927
0.02704413
0.01645229
0.29641610
0.17156163
0.30994704
0.35221416
0.23760201
0.32923624
0.22531158
0.03433719
0.21532792
0.11744314
0.02503343
0.00317450
0.29522976
0.28093085
-0.07144725
-0.15177700
-0.29200470
-0.18451934
-0.30005312
-0.09313538
-0.07716163
-0.16581312
-0.15464467
-0.02819947
-0.04379743
-0.11358846
-0.16839920
-0.07467177
-0.33670509
-0.32861447
-0.26816607
-0.34285882
-0.18339802
-0.08054204
-0.12223692
-0.17777102
-0.11980531
-0.04466923
-0.12436878
-0.24694492
-0.13840084
-0.30502447
-0.02503825
-0.06768654
-0.06824036
-0.06226770
-0.15515637
-0.19657999
-0.13332529
-0.08034936
-0.27921507
-0.13090943
-0.33509362
-0.14405474
-0.07070896
-0.02538879
-0.09413141
-0.07576649
-0.25839400
-0.16931097
-0.15058917
-0.15025048
-0.24754567
-0.28337941
-0.08897389
-0.04718823
-0.35339805
-0.26176885
-0.19430017
-0.02109396
-0.14068094
-0.30963376
-0.30875960
-0.10386836
-0.38785046
-0.27175552
-0.09530595
-0.10061467
-0.43851694
-0.39563739
-0.14201711
-0.22412765
-0.34027869
-0.14645034
-0.28242528
-0.35237560
-0.32326126
-0.16208304
-0.28051886
-0.05782294
-0.30713314
-0.28651249
-0.24018787
-0.15531227
-0.07590684
-0.18638539
-0.07716203
0.00823128
-0.33871496
-0.36605808
-0.22711332
-0.32211041
-0.42871287
-0.34066975
-0.27980870
-0.27011102
-0.19918585
-0.07798120
-0.04300153
-0.08990033
-0.28757182
-0.04185970
-0.25866911
-0.12940064
-0.30537543
-0.14159198
-0.13888611
-0.22641508
-0.07800937
-0.05252514
-0.13717885
-0.29382935
-0.21877368
-0.33114555
-0.27079621
-0.29293042
-0.31067875
-0.34642389
-0.27199382
-0.14884391
-0.09255716
-0.08761601
-0.32527667
-0.14323996
-0.18887092
-0.30242893
-0.13082714
-0.29659978
-0.18954445
0.02254531
-0.16120172
-0.07097965
-0.02121045
0.00320526
-0.19276050
-0.22841746
-0.36546931
-0.20270675
-0.32342520
-0.13572714
-0.10375498
-0.22096045
-0.16096492
-0.18307278
-0.01105995
-0.02476266
-0.30826867
-0.21119550
0.28968960
0.17006937
0.31383446
0.18686572
0.26380748
0.15634827
0.09927558
0.05628921
0.30814576
0.18451130
0.37101036
0.21654882
0.28281710
0.20711806
0.30015123
0.15074800
0.25404239
0.14722146
0.10166265
0.12695655
0.29225299
0.11900620
0.36521131
0.30070361
0.26989719
0.15892281
0.22446156
0.13160680
0.40580899
0.23956852
0.39030689
0.23085624
0.32747820
0.19974819
0.32755947
0.19392960
0.26236862
0.17968039
0.21953829
0.16522503
0.39302069
0.25282681
0.37696168
0.23082832
0.30187690
0.02364198
0.31591520
0.18847243
0.29352877
0.17144617
0.46790832
0.27708083
0.06257877
0.03772785
0.43635163
0.25898081
0.23444165
0.14256409
0.26786405
0.15628412
0.28865215
0.23449783
0.45113552
0.26758221
0.05873975
0.01695001
0.41931349
0.23305146
0.21715030
0.02916162
0.26382229
0.21881573
0.32876405
0.20006871
0.16140960
0.08993306
0.46864858
0.27394888
0.52649724
0.30954409
0.34348860
0.20389543
0.36927721
0.21849234
0.30416581
0.03676171
0.16906483
0.25096571
0.46034488
0.36828864
0.51293367
0.36376038
0.33000484
0.18260841
0.35647351
0.21629573
0.39254001
0.22809899
0.07925226
0.04383523
0.04440499
0.02642365
0.12903695
0.07246502
0.10258789
0.05843657
0.37857851
0.22323127
0.38882232
0.34669396
0.08377715
0.13226832
0.04250773
0.02178771
0.13380262
0.18464620
0.10441383
0.12362866
0.36727124
0.24321471
0.35294640
0.21387894
0.19407089
0.11213297
0.26158690
0.15279675
0.19481693
0.11448038
0.30658653
0.18090729
0.38153255
0.22873744
0.32869443
0.06491037
0.19375254
0.18934323
0.25722349
0.20877311
0.18993738
0.13624473
0.29712835
0.19340926
0.36117989
0.13938142
-0.19926776
-0.15102579
-0.22775733
-0.08477181
-0.18814313
-0.09321266
-0.05925592
-0.11169381
-0.22830975
-0.05217380
-0.24948645
-0.23137259
-0.25002533
-0.22290079
-0.21490860
-0.25949243
-0.19623217
-0.21311189
-0.12822203
-0.06269290
-0.18896809
-0.26188555
-0.34714660
-0.27680179
-0.18779714
-0.12648059
-0.15363429
-0.12209829
-0.28516302
-0.17161097
-0.27626085
-0.15184200
-0.25922582
0.05465758
-0.23269461
-0.12181315
-0.22284590
-0.21092205
-0.19733247
-0.17155100
-0.32189074
-0.32137662
-0.30021653
-0.31211883
-0.12267976
-0.30347207
-0.24796516
-0.26322487
-0.19793358
-0.17940485
-0.33266225
-0.17224516
-0.04753020
-0.00286698
-0.31288669
-0.14297804
-0.18360534
0.02602744
-0.17984930
-0.16888086
-0.27205962
-0.21982816
-0.35296050
-0.37641072
-0.03289082
-0.05494996
-0.31662911
-0.35505754
-0.09712517
-0.21426217
-0.25193587
-0.19942799
-0.25814170
0.04092377
-0.08915419
-0.22930191
-0.31700721
-0.27989480
-0.36420369
-0.26091927
-0.24643558
-0.11164431
-0.26171410
-0.14141695
-0.13306098
-0.30147678
-0.24232797
-0.09103202
-0.42972693
-0.35247308
-0.44478333
-0.40821058
-0.24860238
-0.27970219
-0.28244844
-0.29581454
-0.25935888
-0.27535868
-0.04231549
-0.12227115
-0.03215186
-0.01248503
-0.07385258
-0.16619653
-0.06245345
-0.10732162
-0.26484162
-0.16796876
-0.38898027
-0.28588241
-0.12585600
-0.04248431
-0.03075593
-0.03660396
-0.18157846
-0.07668509
-0.12675220
-0.06663503
-0.30587909
-0.29801285
-0.27302372
0.01668934
-0.12533194
-0.15534417
-0.17642775
-0.15966073
-0.13449898
-0.09830730
-0.21505189
-0.13222092
-0.28396860
-0.05606890
-0.16218443
-0.31742725
-0.20594296
-0.13695115
-0.24229701
-0.19595698
-0.16583042
-0.15064564
-0.24501055
-0.24221118
-0.22791776
-0.32620418
0.28445956
0.10622060
0.29492286
0.12405724
0.26660302
0.11189532
0.07943314
-0.00033506
0.26511842
0.09607732
0.05891339
-0.02067742
0.08254749
-0.03574353
0.05463138
0.03201042
0.04993954
0.02770014
0.08970497
-0.15871623
0.08342573
-0.04779720
0.11192638
-0.21901113
0.18877344
0.09548192
0.33299029
0.16708489
0.20159921
0.08826604
0.33469018
0.10919844
0.02328182
-0.04008793
0.29080939
0.11393186
-0.00075313
0.10019952
0.00165388
0.17009373
0.02964521
0.03906096
0.13218588
-0.12029392
0.11515278
-0.24480639
0.07252394
-0.01006259
0.23800649
0.07216533
0.19816169
0.04493903
0.05985615
0.03183644
0.11338875
0.04610539
0.05006534
-0.02085693
0.17107812
0.06125667
0.10619628
-0.11275784
0.12207139
-0.16897686
-0.00370769
0.03951181
0.02453895
0.00441916
0.10241599
-0.20240690
0.05548033
-0.03451730
0.36408031
0.14238535
0.22238825
0.07762234
0.24525884
0.08043685
0.05579730
-0.03999091
0.24367206
0.07345932
0.07368899
-0.02355410
0.09135716
-0.01384854
0.07657883
-0.05481919
0.09593853
-0.08608333
0.15135263
-0.30861482
0.10966603
-0.11754358
0.13486639
-0.26248920
0.01434836
-0.02067057
0.16873467
0.06722777
0.30511701
0.12937149
0.08382294
0.01815932
0.36487907
0.18927805
0.31290966
0.16275941
0.06200095
-0.13086337
0.03958755
-0.00027646
0.05423953
0.03820502
0.05352535
-0.07569245
-0.01194754
0.21708694
-0.01122369
0.18834943
0.09564056
0.04323148
0.15529785
0.07210305
0.25670618
0.09595445
0.27656487
0.07923704
0.19007631
0.03322928
0.27050167
0.13934872
0.01104808
0.02526067
0.01370583
0.05046460
0.07427753
-0.03177378
0.13366549
-0.15393059
0.13903625
-0.21105267
-0.00669778
0.15611780
-0.17595415
0.24985148
-0.13330524
0.25994459
-0.12138403
0.23496734
-0.15491293
0.06782496
-0.17429145
0.23267411
-0.18693525
0.04897987
-0.41838127
-0.25022203
-0.37766421
-0.21465059
-0.34240356
-0.19484043
-0.23765144
-0.16629359
-0.40170020
-0.24259838
-0.25854486
-0.18900266
-0.02863635
0.16742654
-0.05524658
0.29524806
-0.07890484
0.17791381
-0.26266727
0.29294825
-0.18642469
0.01728763
-0.16105038
0.25577489
-0.17698333
-0.08571887
-0.31759897
-0.15551959
-0.24420279
-0.13559066
-0.55581564
-0.34512699
-0.23072937
-0.17728457
-0.40621108
-0.23864211
-0.20614347
0.20796704
-0.22504038
0.17216957
-0.00357493
0.05318866
-0.05686152
0.09983757
-0.17044416
0.04141080
-0.11508154
0.15009412
-0.41736087
-0.26307037
-0.40849271
-0.26771227
-0.04982982
-0.02216164
-0.15160777
-0.08764002
-0.23294626
-0.17117624
-0.26219761
-0.15892811
-0.20251727
0.32020232
-0.15667295
0.19498062
-0.19101067
0.21469763
-0.24901159
0.04506655
-0.21254520
0.21289006
-0.22567561
0.06141379
-0.50957394
-0.29957995
-0.34891862
-0.21304409
-0.40561885
-0.25156668
-0.32706735
-0.24460313
-0.42900300
-0.27069497
-0.31408697
-0.22898197
-0.10066190
0.01091573
-0.08948962
0.14847949
-0.13429435
0.26899621
-0.09819022
0.07277312
-0.03870069
0.32392380
-0.03163679
0.27781615
-0.12594287
-0.09628782
-0.23117530
-0.13486019
-0.38658509
-0.21877158
-0.17621732
-0.11597536
-0.32307193
-0.15050820
-0.27528459
-0.12765694
-0.03264704
0.08449195
-0.04629237
0.13731861
-0.15844403
0.22548094
-0.25582993
0.24135946
-0.25068563
0.16450462
-0.03211768
0.24007666
-0.11038530
-0.05996275
-0.17156565
-0.09124108
-0.37716991
-0.22549632
-0.50358224
-0.32053816
-0.43160546
-0.28853530
-0.24342251
-0.11470255
0.09984418
0.04690383
0.00190247
-0.00144067
0.00896078
-0.01481939
0.02243761
0.00163759
0.31442112
0.15763797
0.27910748
0.13724172
0.00759563
0.03515845
0.00533195
-0.01090506
0.04296539
-0.09119832
0.02148995
-0.03624364
0.00184929
0.15996662
0.00762214
0.12865499
0.01890459
-0.04588703
0.22464295
0.06268805
0.12150297
0.00865385
0.20845914
0.05866655
0.21285021
0.10128268
0.06472717
0.01306632
0.12313661
-0.26490629
0.11228915
-0.13332805
0.11684664
-0.19732554
0.10310031
-0.12126983
0.01332169
0.08135778
0.04345625
-0.06318971
0.23337045
0.08023073
0.34189227
0.17617024
0.10977545
0.03789738
0.12471846
0.01097393
0.05742439
-0.00807580
0.30349624
0.09416687
0.08308225
-0.06359968
-0.00856484
0.19754206
0.03873111
-0.02913560
0.11529240
-0.19217920
0.08225700
-0.15358266
0.13065182
-0.13315056
0.19792634
0.06300633
0.02179861
-0.02472140
0.32758689
0.11284663
0.24111310
0.09598691
0.14634943
0.02852007
0.08416702
0.00002326
0.08166087
-0.07892587
0.07934605
-0.16567977
0.11612404
-0.08815997
0.05674205
-0.00078221
0.10052893
-0.14794634
0.09421045
-0.16629939
0.15818474
0.07760956
0.19106194
0.07405993
0.25619653
0.10948987
0.18187687
0.08557694
0.06857561
-0.03713826
0.35100824
0.14463407
0.00470308
0.07206035
0.04941118
-0.01054498
0.04363000
0.03634848
0.01353273
0.06472218
0.15932478
-0.31973538
0.07172038
0.02314766
0.04111503
-0.04284718
0.04895180
-0.02726250
0.19043067
0.03722640
-0.00240761
-0.04563238
0.15391782
0.06880990
0.04514541
-0.03241355
0.14125620
-0.29374772
0.11540254
-0.23196682
0.13055119
-0.19193378
0.09870234
-0.22150522
0.01947793
0.03686425
0.12258564
-0.24998201
-0.02783234
0.08832043
-0.00876235
0.00153160
-0.06960140
0.00669324
-0.03764996
0.01927090
-0.05262224
0.27877522
-0.05620310
0.24729063
-0.10809865
-0.05690153
-0.01146244
-0.00858798
-0.08634774
-0.06627376
-0.06015255
-0.04140508
-0.30040950
-0.14726317
-0.27751029
-0.13937494
-0.19840315
0.01317303
-0.21370092
0.19593851
-0.20463455
0.10434089
-0.19656089
0.18185470
-0.05477766
0.18836735
-0.07919305
0.05613264
-0.24106587
-0.18682097
-0.41577962
-0.26573893
-0.32659671
-0.22490235
-0.38383329
-0.24500431
-0.22524340
-0.11715112
-0.13992421
-0.09262826
-0.16872926
0.20452997
-0.04043642
0.30344039
-0.07881325
0.09621935
-0.20267613
0.10723773
-0.13961515
0.04852480
-0.25530323
0.26533014
-0.37108287
-0.22750206
-0.30748624
-0.14483097
-0.17391963
-0.10650861
-0.32681730
-0.22413266
-0.20335746
-0.14539865
-0.52356362
-0.32856318
-0.16087238
0.17313954
-0.12936562
0.01701671
-0.23605488
0.28711751
-0.12815137
0.21216443
-0.18266505
0.12685072
-0.16281115
0.07189155
-0.33501968
-0.20914677
-0.16442250
-0.12480502
-0.51998991
-0.31862569
-0.33065200
-0.19295919
-0.32049251
-0.21272314
-0.25029081
-0.17498805
-0.03246138
0.14014129
-0.10860791
0.16799282
-0.10972638
0.22592290
-0.05021790
0.16089398
-0.26368260
0.05616584
-0.16928826
0.30918273
-0.15797415
-0.07954539
-0.27007651
-0.15933822
-0.32113472
-0.18092768
-0.19636309
-0.10321316
-0.35359085
-0.26201171
-0.46162888
-0.26516241
-0.23066851
0.03234078
-0.19087763
0.04004452
-0.23727596
0.16506636
-0.15625846
-0.00501397
-0.05523452
0.13592644
-0.20167558
0.03645949
-0.29489449
-0.22324608
-0.25543448
-0.18945034
-0.41655964
-0.27642387
-0.17663953
-0.14167421
-0.18072473
-0.09895632
-0.26485884
-0.19809091
0.14866996
0.04692994
0.08073293
-0.03103809
0.11549959
0.00568218
0.10243377
0.00044907
0.24130553
0.08339847
0.13379663
0.01746149
0.06221962
-0.06125023
0.15938522
-0.31352544
0.11672650
-0.20019053
0.11372193
-0.20030494
0.08493006
-0.06358174
0.11104356
-0.17796034
0.32431233
0.16912308
0.05881160
-0.04187139
0.27065325
0.07423421
0.26288542
0.09426879
0.24261679
0.09745093
0.26085854
0.06863456
-0.01259401
0.19735813
0.15890704
-0.32389894
0.13816151
-0.16704842
0.08494361
-0.05234963
0.05517294
0.00350394
0.13963486
-0.17544790
0.20583719
0.06153231
0.09439384
0.01705582
0.26929823
0.08259118
0.01030108
-0.03240298
0.10875434
0.03027974
0.17298923
0.03906734
0.09379596
-0.10187605
0.06781620
-0.10206483
0.11807412
-0.12293173
0.08353857
-0.18103558
0.05451452
-0.06488828
0.10692708
-0.14832044
0.29701149
0.14435984
0.02806709
-0.03350855
0.28472000
0.09562775
0.18809208
0.08687501
0.03088050
0.01179527
0.30254143
0.09358689
0.01185653
0.12855011
0.10589211
-0.22164436
0.10637730
-0.08878248
0.01760901
0.05886984
0.00837431
-0.00257059
0.13087122
-0.13413846
0.21766634
0.04925148
0.16717540
0.05639795
0.22700654
0.11325772
0.31826821
0.14556980
0.16348583
0.03359892
0.25002941
0.12266208
0.13433285
-0.18615834
0.06190596
-0.05089251
0.00256648
0.11274546
0.03297419
0.09252091
0.10843507
-0.15664516
0.00745350
0.11385575
0.09103455
-0.02232327
0.07121477
0.01956337
0.14851812
0.03833137
0.28890800
0.12758256
0.12854740
0.05122572
0.18463773
0.07221416
0.15155739
-0.29068175
0.03628501
-0.04380169
0.08115628
-0.10358555
0.04006153
0.06138311
0.03013799
-0.00016363
0.04631788
-0.00699517
-0.12223554
0.13002595
-0.26569971
0.06694521
-0.20349516
0.09902059
-0.19666220
0.08752144
-0.17291568
0.21151291
-0.19736789
0.11541220
-0.25324297
-0.15837255
-0.36518630
-0.26768973
-0.32070708
-0.22196785
-0.30291656
-0.21161312
-0.38192919
-0.23382406
-0.32769242
-0.22216100
-0.03126407
0.28796801
-0.26147667
0.04751929
-0.26203084
0.23598588
-0.17634740
0.23064962
-0.12589884
0.21354368
-0.26282117
0.22725694
-0.28357363
-0.13091822
-0.34360880
-0.25691739
-0.50614691
-0.32432356
-0.40234190
-0.24376726
-0.32922837
-0.19138083
-0.49956381
-0.32195073
-0.18138069
0.17980094
-0.12254005
0.08173057
-0.22993837
0.23537014
-0.13420215
0.00669840
-0.10369988
0.09485347
-0.19702865
0.15028831
-0.36449045
-0.23033904
-0.21210895
-0.14150935
-0.46845505
-0.29464233
-0.16115956
-0.12558267
-0.20156494
-0.12887110
-0.35725883
-0.23422904
-0.06575233
0.26304442
-0.17248437
0.02180132
-0.21381280
0.24938735
-0.05766908
0.16628674
-0.01816989
0.02714061
-0.25550053
0.26447698
-0.30210105
-0.15373358
-0.21846390
-0.16608876
-0.46182275
-0.28481364
-0.20962399
-0.11196795
-0.04435495
-0.02631470
-0.52305925
-0.32844147
-0.24758141
0.18910868
-0.12466215
0.14644575
-0.03994643
0.20123489
-0.10262487
0.28127897
-0.19792001
0.14181669
-0.05134032
0.22150908
-0.44914612
-0.29441881
-0.27015790
-0.16642863
-0.21912237
-0.10810263
-0.36046311
-0.19405708
-0.35101375
-0.23204030
-0.24973236
-0.12575932
-0.25490502
0.07630901
-0.06883764
0.06209501
-0.15226369
0.12933898
-0.10923260
0.25503555
-0.06814260
0.11311699
-0.10268367
0.16238604
-0.36072978
-0.26110333
-0.13305448
-0.08523779
-0.28742534
-0.18569623
-0.34557125
-0.19080809
-0.17607847
-0.10271029
-0.25839993
-0.15190928
0.04379860
0.02068609
0.30416375
0.11803573
0.06608122
0.02299687
0.31090006
0.13168105
0.17985913
0.03372419
0.15687795
0.01922500
0.00308576
0.01597235
0.07836092
-0.01611798
0.02290624
-0.01662687
0.05558420
0.03822261
0.12649389
-0.18839732
0.13297462
-0.21485236
0.18605514
0.06691631
0.24986310
0.13233510
0.09510009
0.04166231
0.08575518
0.03364401
0.25411287
0.12973939
0.08949325
-0.01160284
0.05967755
-0.03606679
-0.01422691
0.16214758
0.01392961
0.01854865
0.02128114
-0.00273291
-0.00369963
0.14087445
0.12600960
-0.23447770
0.19640355
0.06961526
0.16361816
0.01416603
0.21925649
0.04982467
0.04060565
-0.00688053
0.09546781
0.04408112
0.01789758
-0.05574102
0.06526987
-0.04314501
0.15176469
-0.25326368
0.13484007
-0.18646030
0.06076500
-0.11440200
0.00896665
0.02981510
0.14390513
-0.31177565
0.17308062
0.08600798
0.05253953
-0.02276151
0.06976465
0.00012539
0.13860558
0.05645222
0.01228127
-0.03330647
0.12472319
0.03603150
0.00272365
0.08425134
0.10941903
-0.21674256
0.07785367
-0.13731663
0.02978886
0.00586469
0.08776388
-0.18943068
0.05961783
-0.06794206
0.20852931
0.07538457
0.01966010
-0.05972611
0.15589800
0.06710141
0.01669864
-0.02305652
0.19519544
0.06893363
0.17210464
0.05437564
0.06603014
-0.03851320
0.15473425
-0.33502036
0.02549202
0.02447758
0.06993489
-0.14734092
0.06543151
-0.04413620
0.07192016
-0.07066610
0.08287084
-0.02752482
0.06115701
-0.00024077
0.01803876
-0.05065010
0.32645702
0.11315821
0.12501781
-0.00361411
0.11159740
0.03952977
0.15397277
-0.30033210
0.06902726
-0.12211323
0.13275084
-0.28681177
0.11416627
-0.08438100
0.14804342
-0.26510501
0.03714429
-0.02464383
-0.01181847
0.03875066
-0.17242394
0.26744729
-0.04679452
0.05793281
-0.13734220
0.27408543
-0.22916648
0.15580985
-0.23581962
0.13524106
-0.04697328
-0.02460480
-0.42940846
-0.25322688
-0.10395323
-0.06352359
-0.39448622
-0.22337613
-0.39921740
-0.26569325
-0.38925272
-0.26450020
-0.12410925
0.16325334
-0.01690759
0.22199397
-0.03713456
0.08392861
-0.04732456
0.07542711
-0.03428578
0.22545558
-0.21411754
0.07568736
-0.28395569
-0.17188700
-0.21027593
-0.09432027
-0.11509793
-0.06388258
-0.11959495
-0.07021991
-0.23337337
-0.11150313
-0.31296405
-0.22343752
-0.13461950
0.17226721
-0.26670429
0.14067024
-0.24863765
0.19050404
-0.10284986
0.03423679
-0.02931655
0.08439948
-0.23120333
0.01167424
-0.30386958
-0.18473552
-0.42968079
-0.29478115
-0.45156789
-0.29588380
-0.14850974
-0.10657445
-0.10644918
-0.05687235
-0.27776083
-0.21640135
-0.03167403
0.15340871
-0.18194889
0.04340065
-0.13457724
0.05959660
-0.06917802
0.12204677
-0.14122057
0.00833119
-0.11432228
0.10886581
-0.16845937
-0.08353192
-0.24797799
-0.18244451
-0.20703447
-0.14470358
-0.18494834
-0.10683054
-0.17068946
-0.13260554
-0.22590250
-0.14359681
-0.13774224
0.18299818
-0.24866748
0.01292139
-0.06509171
0.13750707
-0.11362434
0.01276855
-0.13468510
0.17119114
-0.14133348
0.15052493
-0.31670383
-0.19141139
-0.29905558
-0.23287709
-0.19349708
-0.10856681
-0.14254493
-0.10884573
-0.30302119
-0.18441379
-0.29296732
-0.18318176
-0.25744811
0.06899898
-0.11920963
0.05222078
-0.21352394
0.01212479
-0.23276940
0.28617266
-0.25469872
0.10654791
-0.07658291
0.09788135
-0.35739523
-0.26084331
-0.18290287
-0.12797716
-0.25767523
-0.20033063
-0.51537371
-0.31527406
-0.38646671
-0.27164745
-0.17276460
-0.10505097
0.17697173
0.08988538
0.25304344
0.07524335
0.15592285
0.01265223
0.19317287
0.09834599
0.05899436
-0.00675249
0.13065718
0.06887408
-0.00153440
0.09578368
0.11619715
-0.12722661
0.14651018
-0.24555466
-0.00219021
0.10570229
0.08107477
-0.15012522
-0.00671525
0.08317334
0.28943774
0.14489827
0.35470012
0.18150191
0.07766179
0.04121746
0.07979491
0.03041808
0.24077885
0.10603040
0.11132827
0.03174111
0.00217798
0.14619459
-0.00606819
0.19865523
-0.00461179
0.05082184
0.02177427
-0.00694389
0.03405029
0.04967874
0.05414990
-0.06273134
0.35150534
0.14888622
0.06735339
0.01687049
0.34773958
0.11683983
0.05865236
-0.01809410
0.36009493
0.18421333
0.16911246
0.01840232
0.06282850
0.04324883
0.03794430
-0.04951952
0.12982067
-0.10820574
0.10589372
-0.20568579
-0.00605129
0.20143300
0.14850463
-0.24312162
0.23460740
0.05501864
0.11421082
-0.00777753
0.36589301
0.14110102
0.21195616
0.06426168
0.21513949
0.11234403
0.00537143
-0.01831844
0.14049074
-0.19105797
0.14519167
-0.26438159
0.09624118
-0.02380090
0.09458395
-0.10044099
-0.00869366
0.13167852
0.04672068
-0.10145128
0.09828860
-0.01964797
0.18741021
0.04382678
0.20919280
0.04425041
0.26996675
0.12872845
0.07108678
0.02226686
0.34239438
0.17420039
0.15373677
-0.29175913
0.11250187
-0.15323411
0.13595575
-0.19420202
0.01630222
0.10451543
0.03013432
-0.03014356
-0.00362535
0.18678191
0.36122221
0.17138928
0.34421048
0.17711119
0.01068521
-0.04655715
0.10636727
0.02083587
0.00045937
-0.00566727
0.28207910
0.12113311
0.02370724
0.13561684
-0.00805939
0.19762404
0.11542045
-0.25197771
0.07282616
-0.10699548
0.01310758
-0.02900908
0.04674474
0.04290597
-0.02553149
0.15698355
-0.22439094
0.22101013
-0.25714940
0.13399929
-0.02705097
0.17136988
-0.13798706
0.04995154
-0.00999056
0.11606284
-0.16441719
-0.07916163
-0.44969562
-0.28445229
-0.41288581
-0.28364134
-0.17853487
-0.08566312
-0.20269774
-0.14441040
-0.11126921
-0.05036913
-0.04919578
0.25661027
-0.04642256
0.31472561
-0.00495394
0.06900510
-0.04716524
0.07012714
-0.09208711
0.21252988
-0.10352798
0.09714667
-0.27740160
-0.13624991
-0.32411239
-0.15433232
-0.06501333
-0.02904179
-0.11485770
-0.06819239
-0.28920367
-0.15997992
-0.20333578
-0.12952727
-0.15525557
0.30988294
-0.07086071
0.05862235
-0.26097590
0.30458945
-0.17732026
0.04892435
-0.04730191
0.31950921
-0.26239887
0.14563768
-0.44598058
-0.25252813
-0.13241410
-0.08586244
-0.56385708
-0.34770635
-0.24736303
-0.18015586
-0.32923988
-0.15683760
-0.42896226
-0.29259175
-0.26003104
0.20395243
-0.24846525
0.09704744
-0.21055458
0.32166737
-0.18359821
0.18520427
-0.02020145
0.19103959
-0.07499377
0.00340066
-0.47631380
-0.31111714
-0.37108728
-0.26255253
-0.52013969
-0.30747870
-0.37169987
-0.23429279
-0.18749982
-0.08635677
-0.08976369
-0.07005553
-0.25951001
0.08267836
-0.20815468
0.16291426
-0.24881786
0.18154699
-0.06853375
0.23893145
-0.05905638
0.06216092
-0.04835464
0.30374160
-0.37153375
-0.26759183
-0.38098866
-0.24892502
-0.44408232
-0.29286990
-0.28460842
-0.14772803
-0.12178444
-0.07628145
-0.31691423
-0.15220724
-0.09470634
0.31964093
-0.04160491
0.30548146
-0.18485883
0.00610913
-0.13238291
0.09220250
-0.02087409
0.00002505
-0.11875959
0.24878472
-0.38424712
-0.20040426
-0.31059265
-0.14662820
-0.21931359
-0.17187916
-0.23250252
-0.15426274
-0.02419363
-0.01917247
-0.35123387
-0.19733563
0.19977210
0.06817689
0.13354374
0.01903961
0.13533427
0.03126948
0.13146825
0.06503956
0.09847111
-0.00290292
0.29574621
0.11370337
0.07223864
-0.05693741
0.10725363
-0.16963531
0.08208320
-0.11253445
0.00271371
0.06255645
0.11673237
-0.20909065
0.07856060
-0.02095659
0.17116791
0.05362684
0.16012867
0.05635680
0.23785095
0.06772571
0.21487497
0.05595113
-0.01109382
-0.07964233
0.17442496
0.04304985
0.07253498
-0.07252692
0.05410547
-0.03716378
0.11588727
-0.13446391
0.11631954
-0.14741944
0.16454704
-0.37296721
0.09968557
-0.13141210
0.23014791
0.08742110
0.24730933
0.06027086
0.01187335
-0.00596331
0.21207587
0.04393341
0.00583077
-0.04790600
0.21545155
0.08336684
0.06349561
-0.02157501
0.14304531
-0.19012932
0.02654840
-0.05304468
0.13988905
-0.20147426
0.11298099
-0.24906769
0.05604542
-0.01262023
0.00352530
-0.07025651
0.26389533
0.13891387
0.36057618
0.13502699
0.34881887
0.11447774
0.16599059
0.03395397
0.20093882
0.05137633
0.16006359
-0.35533309
-0.01313025
0.16702370
0.10378355
-0.04340610
0.13627817
-0.12205201
0.11045133
-0.15983710
0.11087743
-0.14254881
0.34503272
0.14155003
0.13975242
0.07494005
0.01941098
0.00303501
0.19297534
0.09915195
0.12734111
0.06157836
0.23016708
0.06865552
0.07188114
0.01967037
-0.01000816
0.09526802
0.01499511
-0.02333036
-0.00420235
0.11008918
0.00578261
0.05355447
0.10521565
-0.11466094
0.03242431
-0.05648072
0.19077444
0.08333724
0.20487060
0.07775408
0.13092248
0.04358385
0.18239647
0.05295320
0.11295538
-0.00952557
0.16181789
-0.34416562
0.02847429
0.03602446
0.05666737
-0.01953015
0.04977875
-0.04275136
0.08660717
-0.09806818
0.14766997
-0.27056694
-0.14621115
0.17505118
-0.19131337
0.11529847
-0.15165128
0.11762048
-0.02508232
0.11650710
-0.20081352
0.08391953
-0.17141062
0.25997677
-0.31968415
-0.19636549
-0.32058364
-0.21656224
-0.27664974
-0.18097444
-0.12912703
-0.06438190
-0.30462965
-0.21414573
-0.42181772
-0.24964488
-0.14216116
0.14967631
-0.11116932
0.14042422
-0.22149831
0.20754644
-0.21855347
0.18715869
-0.25938022
-0.01463745
-0.18576339
0.15177275
-0.29319677
-0.18364039
-0.24936067
-0.15190409
-0.43478042
-0.27701768
-0.41385683
-0.26707739
-0.28778732
-0.23292980
-0.34548888
-0.22441381
-0.13713634
0.20224352
-0.26609236
0.21514201
-0.04400818
0.00975496
-0.25551552
0.18398900
-0.18022032
0.00187535
-0.12299059
0.18942806
-0.33253431
-0.19768640
-0.49294484
-0.32065359
-0.05934098
-0.04386454
-0.45393589
-0.29988551
-0.21030532
-0.16611795
-0.30514485
-0.18015088
-0.25457528
-0.00154242
-0.02086546
0.23440576
-0.22168398
0.31673238
-0.27139440
0.30535823
-0.20151559
0.14397912
-0.20771462
0.17495883
-0.29347211
-0.23316678
-0.22552109
-0.10235946
-0.52878821
-0.31594437
-0.57658201
-0.35754398
-0.35703495
-0.23610881
-0.39082557
-0.25279632
-0.16859910
0.30387896
-0.00620206
0.12422458
-0.02686447
0.01677631
-0.02382652
0.17125341
-0.02930041
0.11275762
-0.20334838
0.20104365
-0.45627481
-0.26264709
-0.11389323
-0.04978814
-0.04552012
-0.03061794
-0.17470093
-0.08266155
-0.13079068
-0.06692344
-0.40817684
-0.25804684
-0.26192620
0.02403410
-0.07533599
0.16834854
-0.12230551
0.18002671
-0.09968749
0.11465034
-0.16626793
0.15922336
-0.25219989
0.09586183
-0.32395515
-0.24899387
-0.23185332
-0.12891901
-0.29627562
-0.17618488
-0.21392450
-0.13221452
-0.32931340
-0.20916054
-0.37439349
-0.26556027
0.13681376
0.44524819
0.12613793
0.40749991
0.11430680
0.36933887
0.07203094
0.24088882
0.13080552
0.42632502
0.07646099
0.25804129
0.11978667
-0.22908987
0.08032529
-0.18683667
0.07339742
-0.16980304
0.12791543
-0.17310745
0.12084126
-0.22414123
0.15920714
-0.20271572
0.06260955
0.19836618
0.11195477
0.35512683
0.08231641
0.26509011
0.17876647
0.58518326
0.06620848
0.22599237
0.13384572
0.43443701
0.00078806
-0.06110165
0.00561690
-0.11266451
0.04399629
-0.11510938
0.19063056
-0.32695159
0.16342953
-0.19623256
0.10564315
-0.21477464
0.13331452
0.43746457
0.12807526
0.42307746
0.01809174
0.05683185
0.05029007
0.16285248
0.06868200
0.23205125
0.08524306
0.27798241
0.15284643
-0.25247183
0.17495385
-0.26530769
-0.00466641
-0.01369431
0.03589240
-0.07762073
0.14564152
-0.18422222
0.08031122
-0.14733200
0.16785325
0.54487568
0.11307213
0.36915234
0.13052878
0.42719856
0.09542985
0.32368886
0.13696593
0.44952500
0.09303342
0.31378546
0.13305479
-0.26980585
0.11071748
-0.19882059
0.13837987
-0.23807116
0.21505348
-0.26624107
0.15781961
-0.26002380
0.19186416
-0.24515544
0.03625314
0.12359724
0.07639555
0.24771215
0.12934075
0.41759798
0.05513476
0.18226586
0.11569306
0.36507404
0.09871876
0.31136698
0.08801211
-0.10625483
0.05776408
-0.12053622
0.07987015
-0.18956129
0.07668289
-0.11531853
-0.01334632
-0.10092431
-0.01283125
-0.08494871
0.03752113
0.12048741
0.05877694
0.18824001
0.12335576
0.40142936
0.16012155
0.52628607
0.13398686
0.44419086
0.08686454
0.27442247
0.01659798
-0.04967093
0.02095104
-0.07372198
0.10779324
-0.20638466
0.19215624
-0.31018066
0.19891790
-0.29041514
-0.00683371
-0.07835566
0.15433371
0.12937577
0.09794708
0.06899355
0.08965284
0.06353465
0.17674635
0.17640440
0.15685512
0.13423952
0.22210981
0.22636972
0.38121754
0.15834145
0.33937401
0.18696828
0.30778587
0.16860649
0.22675578
-0.00488819
0.36701289
0.14279364
0.25011107
-0.03706745
-0.00893215
-0.03101638
-0.00977600
-0.04843535
0.05151598
0.03095884
0.25188982
0.22601090
0.22998005
0.23871510
0.13398558
0.10729068
0.15275224
0.14598995
0.27483290
0.25532451
0.21808875
0.13347690
0.51181698
0.16047187
0.22684534
-0.06689565
0.36831000
0.17061780
0.20357881
0.18638828
0.23697694
0.22601041
-0.00978774
-0.01713510
0.04474547
0.03396520
0.20338817
0.20773408
0.10451856
0.09008867
0.38597757
0.10513108
0.38210177
0.06273866
0.04217360
0.04884590
0.13685890
0.06927942
0.22572243
-0.03687791
0.23980147
0.09093020
0.16886771
0.13550262
0.14480628
0.12649186
0.18272564
0.16366962
0.30128676
0.30983007
0.21031332
0.19280723
0.26752639
0.27234450
0.46211916
0.21319297
0.31977075
0.11491746
0.37338412
0.11827527
0.31872728
-0.06851326
0.39686534
0.10693979
0.30357790
-0.04258379
0.12375537
0.12824714
0.07274372
0.05700685
0.09676058
0.06657954
0.10402920
0.09957813
-0.03830228
-0.08203195
-0.03480759
-0.07240611
0.12361885
-0.03462150
0.20920353
0.10083289
0.34698913
0.19511075
0.16503921
0.02514715
0.27631730
0.28991237
0.23519680
0.24934080
0.01839244
0.00834008
0.02137599
0.00463236
0.13884258
0.11629820
0.25714192
0.23818707
0.27131146
0.26297444
-0.02406521
-0.05626932
0.09802000
0.06554448
0.15152018
0.10954779
0.34363377
0.14305210
0.46703494
0.11460084
0.40612078
0.04401160
0.20874439
0.21333455
0.03717173
0.11889675
0.00334078
0.01133627
0.02479489
0.08461124
0.01839326
0.06131332
0.10585760
0.33582619
0.09700350
0.30856651
0.01174629
-0.04540615
0.00757542
-0.00935844
0.06098093
-0.07330805
0.03067724
-0.04259554
0.00571133
-0.10685276
0.01354583
-0.10464401
0.06879961
0.23532331
0.13194734
0.43398315
0.09984350
0.33285201
0.12188367
0.40079573
0.07778663
0.24844675
0.04365266
0.14445889
0.17470162
-0.20785943
0.16135021
-0.25803518
0.16679558
-0.23143955
0.14816824
-0.23764583
0.02097230
-0.09209734
0.06222472
-0.09252634
0.12003724
0.39214161
0.10973932
0.34667403
0.05628683
0.18384789
0.10012770
0.33353546
0.06090703
0.20458405
0.16757886
0.54950398
0.12004241
-0.21309534
-0.00877811
-0.09887251
0.05597079
-0.09966505
0.16462442
-0.22995651
0.11714346
-0.15364507
0.18814982
-0.31413928
0.10748855
0.35216355
0.04754177
0.16180903
0.16824487
0.54958248
0.10925332
0.35427120
0.09985333
0.33059999
0.07589710
0.25377491
0.11767957
-0.19906408
0.11266773
-0.13711485
0.16779704
-0.29830727
0.08278776
-0.17252406
0.14391345
-0.21292637
0.13434738
-0.18204764
0.05517142
0.17555083
0.08883139
0.28850815
0.10763220
0.34729761
0.06755824
0.21605241
0.10373967
0.35114640
0.15352564
0.49670976
0.00822025
-0.05993466
0.07190611
-0.14399356
0.06435291
-0.15603584
0.02096696
-0.08221520
0.22647765
-0.28351375
0.10509600
-0.23333716
0.08540662
0.29050267
0.07490104
0.25358266
0.12979898
0.42972809
0.04928765
0.17005180
0.06124577
0.19687378
0.07727628
0.26211721
0.20059997
-0.24486151
0.16403581
-0.20511797
0.18689588
-0.27663919
0.13986260
-0.16081464
0.02911802
-0.08271720
0.17417869
-0.21562226
0.01130457
0.00041883
0.01061640
0.01092474
0.08579856
0.08902581
0.04220779
0.04172848
-0.00865408
-0.04512900
0.00430962
-0.02747404
0.09522045
0.07132645
0.01117674
-0.00246231
0.08486336
-0.02474881
0.05710475
0.00145488
0.26002607
0.24087444
0.24161595
0.20941523
0.24616070
0.25619993
0.21632119
0.20129453
0.22951469
0.22696641
0.19853275
0.18447936
0.01834295
-0.00514898
0.08459021
0.08136438
0.23768181
-0.07614960
0.38606474
0.09034692
0.31008872
0.00752818
0.35626769
0.08464793
0.19781166
0.15417038
0.13127609
0.01785322
0.15741463
0.13846642
-0.03061576
-0.07132904
0.07334457
0.06439669
0.22627181
0.22319411
0.16267760
0.16416113
0.25004029
0.22764581
0.34047443
0.11858736
0.26365668
0.26971084
0.15952441
0.05604036
0.30990857
0.01115047
0.19534543
-0.01635732
0.48358196
0.13756953
0.15595815
0.14100109
0.15824148
0.16358922
0.21996313
0.19331542
0.10429488
0.08182497
0.19581877
0.18875115
0.18559428
0.18514836
0.30897298
0.09232758
0.16100715
-0.04165971
0.47702807
0.16683203
0.29925412
0.14395715
0.30092126
0.03869162
0.23875237
-0.00456026
0.00321089
-0.01476446
0.09156346
0.07420018
0.07741059
0.05187836
0.01998390
0.00012417
0.31676951
0.32461566
0.13000751
0.09621405
0.13762800
0.11840419
0.24516176
0.11079727
0.28790215
0.16523734
0.17290643
0.13015236
0.34354818
-0.06454162
0.41600502
0.21758828
0.28161943
0.29087073
0.22947158
0.23523855
0.25428393
0.24506190
0.19800495
0.20809950
0.03300402
0.01699520
0.24402423
0.25094920
0.28851795
-0.07238680
0.24825269
-0.04730294
0.39109543
0.05053551
0.17618163
-0.07456838
0.16081159
0.10423233
0.25810993
-0.05552722
0.08118585
0.26606405
0.10782711
0.36411199
0.09777926
0.32629156
0.09189453
0.30721664
0.12362285
0.40376651
0.10100073
0.33570844
0.08964225
-0.15096714
0.22668280
-0.28762716
0.16656628
-0.22926044
0.16217963
-0.22002649
0.12273922
-0.21874109
0.15869197
-0.22599739
0.10182828
0.32103238
0.10026952
0.34008759
0.16043063
0.52789491
0.13083071
0.42661726
0.10895878
0.35311794
0.15790996
0.52011055
-0.01466126
-0.08647029
0.22578964
-0.27960560
0.19847013
-0.31559014
0.12297052
-0.22588915
0.08057871
-0.17045143
0.20046197
-0.31476822
0.11628683
0.38175195
0.06591471
0.21843775
0.14978419
0.49133521
0.04583286
0.15697840
0.06395611
0.21036786
0.11198980
0.36996770
0.13495582
-0.22154562
0.09704054
-0.14220816
0.16998789
-0.28225276
0.11849660
-0.14018287
0.07832984
-0.12517072
0.15324309
-0.23219907
0.10512681
0.33490980
0.06310552
0.21486028
0.14899419
0.48719430
0.07170090
0.22975491
0.01455444
0.04730914
0.16737159
0.54887766
0.01972301
-0.11748922
0.15035185
-0.18264979
0.15356211
-0.26819345
0.02680517
-0.09094179
0.01217205
-0.02390866
0.18845138
-0.31418324
0.14080641
0.46515068
0.08720174
0.28509048
0.07705222
0.24461383
0.12293709
0.39432299
0.10958391
0.36255208
0.08721487
0.27751309
0.19252315
-0.29182455
0.08937959
-0.15656424
0.00586858
-0.07916193
0.04986102
-0.15908526
0.15528689
-0.23153006
0.01302103
-0.09476604
0.10729206
0.36132061
0.04217813
0.13878122
0.09074546
0.29901755
0.11673669
0.37565944
0.05818985
0.18867812
0.08511785
0.27630347
0.21569003
-0.27821201
0.05212502
-0.08292682
0.11647879
-0.18192282
0.05961700
-0.16099465
0.04397665
-0.09179382
0.06745897
-0.13680741
0.11891268
0.10776547
0.31641269
0.32284740
0.22950980
0.22764952
0.22399899
0.22336334
0.16080774
0.14111809
0.21739544
0.21283683
0.23367149
0.06870168
0.35358232
-0.05521987
0.30497080
0.00299156
0.28888118
-0.00486118
0.35028759
0.12333943
0.30965114
0.02127459
-0.03800356
-0.07706778
0.31631577
0.32525879
0.26638943
0.24857084
0.15998644
0.13778211
0.10108951
0.07828826
0.26972878
0.25319865
0.24203247
0.25913513
0.33482304
-0.07175628
0.47032365
0.10673422
0.36792952
0.13995507
0.29764965
0.14627159
0.46498665
0.09810275
0.17997944
0.16530663
0.13226849
0.12800586
0.22616504
0.20650716
0.16710006
0.17420517
0.10503238
0.09777287
0.20760046
0.19806305
0.33733380
0.08948242
0.19946258
0.02276320
0.43296185
0.12048855
0.15918781
-0.05360626
0.18717815
0.04362613
0.33421752
0.05450200
0.01209615
-0.02135394
0.21122313
0.21847947
0.20210515
0.17948623
0.02791298
0.00773391
0.01557739
0.01280964
0.25051779
0.22825642
0.26387510
0.22008939
0.21403743
-0.05638668
0.42444041
0.14098680
0.18533769
0.13193773
0.04032508
0.01762168
0.48319846
0.13667227
0.26079580
0.24877435
0.11755616
0.10422020
-0.00377914
-0.02999096
0.05360389
0.01977515
0.21099780
0.20271835
0.00511475
-0.02329542
0.42015567
0.06873252
0.24821290
0.08318973
0.18995667
0.17300002
0.31934386
0.22090876
0.32918087
0.04606944
0.21757273
0.18713710
0.30031189
0.30476722
0.06995592
0.06526067
0.15688896
0.14764230
0.06896923
0.03926833
0.05537624
0.04338530
0.08561359
0.06869176
0.34786397
-0.04151658
0.12362912
0.02813441
0.26772618
0.05463415
0.30816653
0.19306782
0.15933985
0.07683319
0.23433405
0.10812673
0.01618115
0.05172583
0.14126417
0.45877016
0.03367545
0.10995586
0.13195291
0.42606667
0.12421229
0.41145065
0.11983265
0.39847404
0.00480379
-0.01951516
0.11404690
-0.22874153
0.03311346
-0.05932604
0.08183271
-0.19367260
0.18104175
-0.26650515
0.19000071
-0.26952776
0.09237081
0.30116454
0.07615665
0.23942512
0.03880314
0.12495457
0.03941572
0.12792507
0.08291730
0.26232928
0.09381235
0.31501541
0.08640695
-0.15914984
-0.01770726
-0.05921283
0.02067652
-0.05421051
0.03100366
-0.06316172
-0.00274567
-0.07785290
0.17946719
-0.23587254
0.09866204
0.32189018
0.13161768
0.43846154
0.14159444
0.46771967
0.04438768
0.14921074
0.03640717
0.11666495
0.07900353
0.27057555
0.09443440
-0.17172353
0.21669725
-0.30251923
0.19325764
-0.29318014
0.08651853
-0.11290156
0.01364637
-0.04620587
0.20412600
-0.24153213
0.05913746
0.18784621
0.07306163
0.24691451
0.06279018
0.20993748
0.06136898
0.19870707
0.04863796
0.16646174
0.07187466
0.23618363
0.00556130
-0.06161242
0.15559094
-0.19650562
0.11102412
-0.15051018
0.04358071
-0.09454348
0.12450439
-0.14775503
0.08571948
-0.13879967
0.10309412
0.33604619
0.08508740
0.29137656
0.06495866
0.20948510
0.04106385
0.13995725
0.09834094
0.32089490
0.09392875
0.30781618
0.09563107
-0.17697239
0.21949093
-0.25984511
0.03766097
-0.09321821
0.09927961
-0.12002151
0.09465160
-0.17158926
0.10362071
-0.17458861
0.10579372
0.35690886
0.05543853
0.18539785
0.07338987
0.25121963
0.16687429
0.54496384
0.11684860
0.39112306
0.05608948
0.18300030
0.21903300
-0.27947110
0.09843025
-0.13321598
0.18831891
-0.22331533
0.16501130
-0.29472867
0.21104386
-0.28368005
0.05373976
-0.09766849
0.00446529
-0.00033444
0.14516439
0.11749285
0.04333170
0.03790474
0.09922942
0.06850783
0.24656418
0.23817129
0.26046240
0.25539330
0.04132593
0.03147012
0.38974741
0.17660624
0.09529095
0.03403549
0.35413730
0.19857553
0.37514198
0.04537996
0.36807755
0.02290042
0.11234564
0.09658689
-0.03835060
-0.06889705
0.02419150
0.01448866
0.03929965
0.03141729
-0.01740921
-0.04740442
0.24914604
0.25124088
0.25960398
0.09937675
0.17830613
0.20298083
0.10277961
0.06300529
0.10841933
0.05038993
0.20077614
0.19849952
0.30049467
-0.02388309
0.12315206
0.10674281
0.29787380
0.29388711
0.26175034
0.24959390
0.12024477
0.12155230
0.01422572
0.00398654
0.28784373
0.30006537
0.27814579
0.10322955
0.40749422
0.01425070
0.42236933
0.06958394
0.14282411
-0.01348180
0.09412222
0.06694478
0.27434465
-0.09222550
-0.00134378
-0.02125267
0.21733287
0.22208661
0.15336320
0.15297015
0.05428074
0.04108239
0.17549446
0.18278883
0.11463729
0.10602337
0.14621609
0.13133854
0.24038206
-0.04013086
0.19747227
-0.00360621
0.16692103
0.08483943
0.16843064
-0.05519345
0.20942579
0.05216929
0.12419973
0.10645232
0.30948815
0.32258099
0.04498516
0.02934344
0.13957147
0.14457810
0.12352366
0.10727134
0.13744207
0.12452708
0.28941727
0.11201140
0.29532894
-0.09884536
0.17328297
0.10132734
0.13985750
-0.03865568
0.27745125
0.10217972
0.27031162
0.07960992
0.30547601
0.31112331
0.13600360
0.13573651
0.26547244
0.27656856
0.21608202
0.18937138
0.29192984
0.29207361
0.07009116
0.06077308
0.34555879
-0.04958547
0.17451441
-0.00373535
0.25432760
-0.08389941
0.47257215
0.16740382
0.36926502
-0.01274641
0.15814778
0.05861304
0.05827494
0.18451625
0.14340758
0.47085881
0.12638319
0.42113307
0.06334828
0.20050691
0.06083094
0.20417741
0.04019099
0.12646541
-0.00043519
-0.05592541
0.16716799
-0.27381203
0.20917465
-0.29137474
-0.00120540
-0.06020140
0.11548337
-0.15222776
-0.00823299
-0.03214908
0.09768771
0.30997372
0.11528020
0.36458793
0.02357448
0.07408555
0.03767709
0.12248264
0.09762581
0.31423709
0.06462996
0.21245292
0.00593161
-0.09914119
-0.00511385
-0.10718963
-0.00577274
-0.01809358
0.03164396
-0.06200099
0.05062450
-0.13525949
0.07783838
-0.12542364
0.14917894
0.48168656
0.04173172
0.13759826
0.18192060
0.59485084
0.07331233
0.24721597
0.11708897
0.37032405
0.13179660
0.43857259
0.09249884
-0.21894225
0.05443871
-0.08436859
0.18740672
-0.32738799
0.15065475
-0.19275197
-0.00503687
-0.10899872
0.21213092
-0.29899564
0.14958458
0.49383897
0.11179518
0.37470475
0.17093676
0.55533379
0.11872857
0.38960248
0.06737784
0.21237059
0.02550295
0.08738125
0.20141695
-0.30750123
0.20689601
-0.27544218
0.13999450
-0.27840126
0.13613276
-0.22485638
-0.01020653
-0.05680659
0.06626786
-0.07827152
0.11081870
0.37280497
0.11963111
0.39497063
0.13880250
0.45902535
0.09835844
0.31407619
0.03901397
0.12789027
0.11241362
0.35584271
0.21885008
-0.28417578
0.16128574
-0.24608888
0.19473994
-0.29168376
0.02575787
-0.11583793
0.04340668
-0.07281377
-0.00177268
-0.10712592
0.13256747
0.42355454
0.11076940
0.35001010
0.06214096
0.21313582
0.07245265
0.23986396
0.00680533
0.02340684
0.11784966
0.38012266
0.03714960
-0.15809591
-0.00803898
-0.10046559
0.16368507
-0.19251129
0.10425863
-0.15436494
0.01858128
-0.02161330
0.06902169
-0.16968240
-0.01003468
-0.03082062
0.22304058
0.20509125
0.28764042
0.28402850
-0.01198663
-0.03472669
0.16024536
0.16142829
-0.01860195
-0.03450314
0.14170742
0.13747323
0.41630396
0.10934826
0.39172807
0.01219303
0.15375011
0.15043806
0.19449332
-0.01427684
0.09454609
0.10560818
-0.00701275
-0.04054213
-0.02611326
-0.06807158
-0.01230063
-0.02181387
0.04052276
0.03338435
0.05880827
0.03412112
0.10420007
0.09660421
0.24022326
0.22138456
0.27861896
0.27773902
0.05507804
0.06322979
0.10444348
0.04543473
0.25802505
0.16041654
0.18862136
0.04587775
0.11215866
0.07742313
0.07343483
0.06935477
0.24663422
0.21899870
0.21002382
0.21371435
-0.02629148
-0.06887710
0.29112095
0.28616953
0.40036196
0.22452186
0.12347162
0.02393713
0.51820135
0.17226787
0.23900966
-0.03282431
0.28305370
0.28188282
0.40609562
0.02088529
0.27247706
0.25909269
0.28663665
0.28775689
0.17858951
0.14549868
0.18131891
0.16601102
-0.02589052
-0.05183832
0.09346950
0.09748862
0.44510043
0.07724778
0.35529530
-0.01897148
0.47241414
0.21099149
0.34375146
0.09361608
0.15994525
0.17215267
0.08871098
-0.03028062
0.30439663
0.30822289
0.21821161
0.20754713
0.26438308
0.25351092
0.02207363
-0.00778125
0.05762807
0.05233619
-0.02073125
-0.06101193
0.35771963
-0.03753344
0.35605249
0.06150531
0.41616717
0.06100873
0.24982025
0.19597846
0.11242331
0.03256699
0.27298182
0.26645878
0.03333371
-0.00642450
-0.02969343
-0.07062674
0.23101202
0.24124232
0.14184332
0.13668284
0.02626424
0.02751395
0.08263838
0.05439817
0.33768496
0.26082838
0.26646152
0.27112448
0.21704479
-0.07679754
0.21827993
0.02829698
0.02403279
-0.00930238
0.31465402
0.18288319
0.10332272
0.33763954
0.09899297
0.32881358
0.08681655
0.28669262
0.04524680
0.14381157
0.09210002
0.30828926
0.13855666
0.45021531
0.10434403
-0.18424614
0.15331820
-0.21970847
0.11766290
-0.17908707
0.00513821
-0.04785534
0.16640726
-0.22364712
0.11424717
-0.22628891
0.09392819
0.30790046
0.08089160
0.26399595
0.13818075
0.45424643
0.13073328
0.43069851
0.07980508
0.27600470
0.10879385
0.35882336
0.10448286
-0.17528597
0.07825506
-0.14146526
0.16657947
-0.26828793
0.16696629
-0.26140884
0.23309587
-0.26575679
0.14299415
-0.22081633
0.10902176
0.35448211
0.15511951
0.51174206
0.01743522
0.05898413
0.14176068
0.46895310
0.05928307
0.20373502
0.10033680
0.32590845
0.09225149
-0.17996117
0.20516227
-0.31587821
0.03774252
-0.04738955
0.20034273
-0.29907590
0.16018003
-0.18691409
0.08154824
-0.16290978
0.08240800
0.28362858
0.08139560
0.25618601
0.17299029
0.56289881
0.18555790
0.60728461
0.11144296
0.36872736
0.12332107
0.40644044
0.22688536
-0.26324320
-0.01601508
-0.06564201
0.15063170
-0.28899503
0.19656925
-0.33831751
0.15816905
-0.23565845
0.15911646
-0.24789637
0.15161327
0.49067003
0.04155484
0.13032806
0.01408720
0.04675440
0.06226122
0.19677937
0.04542707
0.14481242
0.13020092
0.42745730
0.10526511
-0.23162721
-0.01281049
-0.02976078
0.02144267
-0.03096185
-0.00405905
-0.05684161
0.00944705
-0.05151736
0.15137957
-0.24827756
0.09294160
0.31726548
0.07811006
0.25159216
0.09712167
0.31580356
0.06895000
0.22553581
0.10481663
0.34438565
0.11263397
0.37771046
0.22965571
-0.27565834
0.04223040
-0.10961774
0.08232570
-0.16043419
0.07183594
-0.12473677
0.12453710
-0.20203477
0.21039604
-0.27908543
0.13699286
0.12088376
0.20980610
0.20490016
0.15926591
0.15164854
0.00027237
-0.01478587
0.23019111
0.23031679
0.14589573
0.11922546
0.29347372
0.10069090
0.30260426
0.02387178
0.25863609
0.04379417
0.11222650
0.09928679
0.29107967
-0.01013187
0.38323587
0.16997406
0.13871169
0.12596704
0.10219229
0.08890231
0.22301655
0.20680770
0.22478667
0.21129961
0.33037317
0.34802732
0.19302389
0.18259907
0.27065659
0.07843531
0.22838102
0.08350736
0.40334177
0.09787195
0.38536474
0.07985230
0.28793299
-0.12976788
0.32231951
0.06094291
0.11826772
0.09774776
0.27709988
0.26248854
0.05276597
0.05402131
0.27215645
0.26133922
0.22631148
0.23686521
0.10390700
0.08435974
0.30249178
0.13053402
0.46008077
0.08515168
0.05761023
-0.01041058
0.42562005
0.06033228
0.20867874
-0.07874037
0.27704713
0.12470015
0.32080850
0.33631241
-0.03670336
-0.06877680
0.19392191
0.16220091
0.25953984
0.23242056
0.21494216
0.20657113
0.21442248
0.20201917
0.29177567
-0.11520206
0.19174114
0.21298364
0.48168671
0.20133886
0.53073758
0.16834216
0.33486483
0.04651381
0.36416507
0.07312475
0.13056479
0.09748401
-0.02556225
-0.04285128
0.02930386
0.02853165
-0.01601346
-0.03893055
0.00658815
-0.00768376
0.20192078
0.18554674
0.41141686
0.21286617
0.09602795
0.11504124
0.04291138
0.00390781
0.14995715
0.15176821
0.11439620
0.09384631
0.37780768
0.09981385
0.32318988
0.33549884
0.04959374
0.03018226
0.10557009
0.08731832
0.09466499
0.08435000
0.16648670
0.15383208
0.29165530
0.29316834
0.31853467
-0.09423003
0.20713820
0.12599987
0.26953155
0.11609016
0.19672829
0.06419376
0.30522221
0.07671911
0.35874343
-0.02176444
