0.18943024
0.42871493
0.39354429
0.23294979
0.34601560
0.25177288
0.85102677
1.01249743
0.73646176
0.77892900
0.09316648
0.65034509
1.05823183
0.85085237
0.73905224
0.12691879
0.75373948
1.00555444
0.88511455
0.75621569
0.46668246
0.82684052
0.71641195
0.77829570
0.82854223
0.24686208
0.23640883
0.04575759
0.03897095
0.30488721
0.19109033
0.51080865
-0.00983498
0.39322078
0.42317981
0.53178978
0.47637445
-0.23103862
0.18065052
0.20222637
0.73731613
0.33961961
-0.14716111
-0.39432299
0.00083627
0.31082553
0.66217101
-0.12149054
-0.04463392
0.61034250
0.11357591
-0.13544542
-0.11201946
0.02645078
-0.10571760
0.18567353
-0.39246520
0.00207666
-0.39100212
0.07616226
0.08275095
0.11217371
0.20463823
0.36369866
-0.11381184
-0.06732963
-0.27352101
0.35105774
0.62969184
0.02030546
-0.07645196
-0.27903435
0.08518076
0.00903975
-0.29810160
0.11429530
0.59222507
0.29450142
0.37312931
0.02758858
0.28179395
0.26533824
0.29223853
0.22997324
0.54265535
0.02464274
0.03231502
0.12485886
0.01024309
0.38827553
0.02362138
-0.17870630
0.22005339
-0.07953854
0.17786221
0.13612527
0.74277389
0.15907556
0.16390917
0.17428857
0.11802986
0.25074130
0.13736160
0.09293427
0.01350945
0.15377688
-0.21980996
-0.11189574
-0.17530556
0.03964043
0.03899497
0.20816897
0.33891547
0.31148547
0.32596159
0.19695553
-0.01178144
0.47923738
0.19713967
0.11203521
-0.16449133
-0.18201788
-0.20876814
-0.03997859
0.18359156
0.29133996
0.44576752
0.39366549
0.21701887
0.29825935
0.05808782
0.44491214
0.43944880
0.49022862
0.47010350
0.03477194
0.37476626
0.42776978
0.31192076
0.30324832
0.12237024
0.17012106
0.19243976
0.45081922
0.47185832
0.24897198
0.33822134
-0.00607540
0.18246193
0.24847575
0.13115273
0.45317668
0.38186342
0.57626057
0.44836372
-0.06507695
-0.40661538
-0.33315608
0.38937515
0.17800763
0.21756572
-0.15576264
-0.69779658
-0.10109189
-0.52252257
0.38223168
-0.26820770
-0.50733650
-0.33468717
0.23263995
-0.02575488
0.07246925
-0.47437179
-0.07911855
-0.03405321
-0.10925063
-0.00159712
0.33131391
0.32835627
0.50263524
-0.28437895
-0.91667199
0.11037147
-0.31208155
0.03263978
-0.19373059
-0.35865882
-0.18359724
-0.39281154
-0.66862369
-0.18560445
-0.32972157
-0.06139880
-0.04321089
-0.30694503
-0.46754652
-0.24780370
-0.01440454
-0.45479047
-0.43554997
-0.14753349
0.28360799
0.22960593
0.39554784
0.25906265
-0.07088366
-0.24166676
0.24334900
0.11559057
0.03984174
-0.26190653
-0.16754052
-0.12685058
-0.27624995
0.05240768
-0.07136804
-0.10336079
-0.30320343
-0.52857918
-0.19766648
-0.11469954
0.32664943
-0.39545342
-0.02355053
0.13752100
-0.10342281
0.07924928
0.25150728
0.03332914
0.15450315
-0.04800484
-0.38838559
-0.24257492
-0.41175732
-0.32940030
-0.33252531
0.04043522
0.03380002
-0.48570883
-0.40188700
0.11902086
-0.22335164
-0.29989925
-0.04653201
-0.25311932
-0.26884282
0.03212970
-0.03543894
-0.31204772
-0.13154629
0.09265779
0.41883332
0.50182831
0.33944243
0.24798974
0.01423379
0.16041782
0.24250187
0.47674006
0.34050992
0.01970845
0.21351725
0.50773716
0.22046418
0.29751807
0.05116310
0.29366034
0.26813936
0.26046532
0.46218598
0.13826256
0.64958650
0.11945870
0.31987721
0.09054048
0.08414580
0.57952666
0.66900420
0.28953758
0.66507900
0.44646150
0.89762419
0.83615065
0.80938077
0.98002034
0.29637235
1.11022604
0.72602248
0.81035316
0.48741895
0.38513577
1.03343391
1.30560207
0.48960191
0.86013782
0.50836492
1.06535959
0.64543980
0.88485330
1.35282850
0.33539087
0.88557732
0.47292289
0.28593799
0.53749770
0.68867362
0.93499482
1.09852600
0.89456350
1.33417952
0.66786045
1.19551563
0.91644871
1.39736784
1.10470152
0.88509464
0.78403848
0.49278867
0.38514122
0.75708669
0.60335648
1.25056434
0.58038723
0.87646830
0.87862235
0.40000367
0.81200904
0.64393044
0.43177336
0.67521042
0.86107427
0.69190693
0.51073420
0.80304205
1.23759782
0.52040982
0.72705698
1.19248581
0.72083199
0.87077105
0.41152245
0.81231964
1.02680945
1.28499067
0.81793427
0.60869211
1.21860337
0.73612773
0.61786491
0.64071256
0.43734506
1.14482915
0.89785057
0.58282274
0.78742540
0.72962195
0.60144323
0.53952193
1.00404477
0.99403900
0.36053741
0.85678095
1.48523664
1.14531565
1.25299776
0.38865662
0.99322701
0.83830082
0.48736888
0.90666783
0.58165336
0.90254498
0.72293520
0.65131122
0.46959537
0.41423148
0.30026817
0.37553167
0.52906603
0.55833590
0.68432552
0.81818008
0.55128056
0.63297474
1.00417030
0.67037302
0.99856776
0.49848971
0.51234752
0.99007744
0.52423787
0.89266592
0.82479143
0.69698995
0.66264069
0.37355584
0.56528127
1.05848598
1.06668389
0.75661278
0.09753388
0.13559890
0.10057938
0.13145766
0.19611041
0.23182550
0.62052673
0.72595084
0.25463596
0.04200849
0.22012120
0.35111472
0.68462241
0.64062107
0.68702590
-0.08641207
0.30454803
0.36225575
0.57960427
0.59755564
0.33783534
0.53307372
0.17676961
-0.13194978
0.07848983
0.11882129
0.32130617
0.33660430
0.15558982
0.01363456
0.10750964
0.20250444
0.11142530
0.15102288
-0.20709819
-0.04766905
-0.13067189
-0.11870599
-0.03073274
-0.46994838
-0.04925020
-0.23926388
-0.19608200
0.22262293
-0.14332020
-0.21625386
-0.23068391
-0.16827130
0.06243345
0.41143554
-0.12269878
-0.16288437
0.10077234
0.04774332
0.35006592
-0.11677492
-0.39730108
-0.47967207
0.07291511
0.47993532
0.01795031
-0.02235910
-0.34139544
0.16304407
0.41041547
0.18531787
0.33093691
0.07469872
0.34609663
0.30215555
0.12366119
0.00821058
0.24141255
-0.06966251
-0.12806073
0.25527850
-0.07336974
0.09712900
-0.05531266
-0.10161224
0.20723292
0.32413226
0.45170125
0.21935520
0.04804413
0.06709804
0.05340333
0.65829313
0.27134663
0.15177682
-0.09311438
0.05547297
-0.18961906
-0.32291949
-0.29358098
0.07128043
-0.12210307
-0.04667935
-0.03947547
-0.13224530
0.33785480
0.16096167
0.02801077
-0.06035868
0.01607251
0.12802964
0.02166459
0.17328256
0.12222843
0.20248710
0.39528841
0.20814213
-0.07707737
0.17783326
0.49305156
0.14048810
0.13987987
0.19129419
0.27342182
0.41018775
0.26088238
0.18070415
0.49289483
0.27025661
0.23396130
0.02932596
0.35379073
-0.12335461
-0.06377876
-0.15663338
-0.20180750
-0.16703774
-0.09699929
-0.21386674
-0.10231754
-0.14453936
-0.17751768
0.02614981
-0.06291534
-0.07998255
-0.23996577
-0.10978335
-0.44054052
0.18470636
0.00674418
0.11115131
0.63882196
-0.07438999
-0.26903850
0.09936133
0.03187381
0.25823414
0.20197336
0.34134495
0.10966671
-0.25757444
-0.20877582
-0.46709090
0.29967526
-0.25654075
-0.48520124
-0.40766883
-0.68547463
-0.13534933
-0.69353014
-0.05731077
-0.19445622
-0.33531502
-0.12620646
-0.46738297
-0.18592243
-0.00750649
-0.12485526
-0.44625825
-0.36070675
0.02412206
0.11454107
0.21175779
0.53026938
0.50643408
-0.43337119
-0.41562334
-0.77660978
-0.21835524
-0.09838176
-0.11970133
-0.41689092
-0.01764697
0.25268751
-0.13824794
-0.17438291
0.20013058
-0.33528471
-0.44011143
0.18926090
-0.06182922
-0.11144128
-0.05605015
-0.59628105
-0.33391100
0.05106205
0.17100188
0.21304107
0.26024055
0.50747418
-0.05946843
-0.15280285
0.13577619
-0.20047891
-0.56227756
-0.20281155
0.07132961
0.44191921
-0.01266132
-0.10469410
-0.32152465
-0.59771001
-0.38451380
-0.84431684
-0.44688767
-0.07124865
-0.43403661
-0.25131130
-0.21775217
-0.09816587
0.15589331
0.52522248
0.15153676
0.38233909
0.38044867
0.19926791
0.10243806
0.44715130
0.13364834
0.45506820
0.31652561
0.56946594
0.35361868
0.18665652
0.30501163
0.18881826
0.08648397
0.01165451
0.52025461
0.35499954
0.16587944
0.33704156
0.55458391
0.43525344
0.20571958
0.28457540
0.64129090
0.64130664
0.99967003
0.94956231
0.99801636
1.31667924
1.10189188
0.74474972
1.11079752
0.68603235
0.88136792
0.59886146
0.80623746
1.19335103
0.61547619
1.23624349
0.88331074
0.91959625
0.89636785
0.34944952
1.01424623
1.12420011
0.85639578
0.68215990
0.33998680
0.95306212
0.89320558
0.69556797
0.72268170
0.84876812
1.23004615
0.80662280
0.90439129
1.02274740
0.65540999
1.19055378
1.30845070
1.23567700
1.19591606
0.30503821
0.80253601
1.06290150
1.04087830
1.67241704
0.43597555
0.90605789
0.78467679
0.90959311
0.49864918
0.27204549
0.77691132
0.63408643
0.49588656
0.78481215
0.61916959
1.34369814
0.61703968
0.72980785
0.68030626
0.70332468
0.87442762
0.86580503
1.52087712
1.07529604
0.18617593
0.63911223
1.13930249
0.86082536
1.02542186
0.32234484
0.64409542
0.94561923
1.35291457
1.12076640
0.06831930
0.51346886
0.51283902
0.50994027
0.66203165
0.63010788
0.77943355
0.78620553
1.29005575
1.56821084
0.39140493
0.24817497
0.93292487
1.05313194
0.74690312
0.44296640
0.98769826
0.92700469
0.85111052
0.88184988
0.49929240
0.66356540
0.74168491
1.06655431
0.58634448
