0.42958629
0.28224394
0.15103287
0.48167032
0.36082333
0.59347302
0.34380847
0.39800683
0.41173065
0.52342486
0.31059879
0.43141603
0.66047788
0.22265720
0.55991101
0.69955993
0.13417156
0.23501647
1.02011204
0.10855396
0.12099862
0.80453974
0.25312117
0.32463652
0.91691482
0.31367505
0.28434283
1.12851310
0.28936177
0.26333883
0.46367764
0.38185787
0.27437773
0.69665915
0.16765721
0.26580626
0.66372275
0.13793194
0.20647635
0.59306312
0.27899355
0.26687509
1.10032856
0.43964416
0.49983916
0.39900908
0.10285748
0.08066195
0.98059517
0.39729136
0.27421844
0.98668152
0.43646470
0.57053614
0.55255461
0.00507035
0.31699151
0.83300710
0.30240852
0.13883877
0.61145091
0.36965778
0.24377143
0.96508646
0.14595997
0.58437294
1.00838709
0.08416241
0.17597397
0.60781932
0.09389450
0.11626311
0.66440952
0.40730387
0.38658243
-0.11545258
-0.11354543
0.27584475
0.06937817
0.26075089
0.50911385
-0.02431237
0.35000011
0.36551917
-0.03346944
0.43159187
0.60590708
-0.01362193
0.18328342
1.08957994
-0.14045249
-0.47575343
0.85576153
0.06457279
-0.34329829
1.28040254
0.06262417
-0.40406680
0.88148642
0.30310136
-0.41595593
1.25727463
-0.25885004
-0.61401981
0.67670804
0.14040449
-0.08464809
0.43163684
-0.17696139
-0.20929594
0.43142343
0.19234258
0.07454745
0.71717554
0.17322686
-0.33946735
0.42228913
-0.58395696
-0.18270397
0.99511021
0.14586264
-0.08569351
0.50885165
0.20451297
-0.12064213
1.31673598
0.09283514
0.06959353
1.19687319
0.05824882
0.11749698
0.73006141
0.10974643
-0.34364212
0.91197622
0.15841411
-0.01228961
0.61970460
0.20247626
-0.00109057
1.12576568
0.18317071
-0.72844684
1.13181889
0.28049541
-0.06946568
0.56025314
0.51743782
0.42413014
0.87928402
0.19180229
0.06565241
0.20363832
-0.00581343
0.01015960
0.75413245
0.32937974
0.20064770
0.52271909
-0.00162768
0.13993883
0.56047237
0.07371855
0.28317702
0.52188921
0.29538175
-0.18247476
0.55680549
0.12596849
-0.38389573
0.79512131
-0.03530233
-0.07463928
1.00653112
0.18119428
-0.51358688
1.21040249
0.15186571
-0.11849298
0.65433162
0.27512762
0.00711746
0.57091349
-0.08214157
-0.38092706
0.68203157
0.02805682
-0.23245254
0.86112988
-0.12790957
-0.21565822
0.16964251
-0.00469783
0.08573635
0.43732503
-0.04305948
-0.29200286
0.46258271
-0.13188633
-0.08773723
0.67316276
-0.08742116
0.21496367
0.69689792
-0.08875108
0.06415749
0.57597435
-0.31076437
-0.10220514
0.86483675
-0.02685499
-0.40258354
0.53930330
-0.54893708
-0.60768294
0.81702071
-0.22721992
-0.14592707
0.94696647
0.30679286
-0.14174153
1.23830593
-0.10630593
-0.29087973
0.99013722
0.25027597
0.09581508
0.35525644
0.20231295
0.24070878
0.80562812
-0.02276893
0.14127541
0.50103265
0.13815781
0.45010978
0.80631447
0.09175956
0.42305306
0.91268051
0.34602791
-0.06749836
0.92611194
0.30807287
-0.16968487
0.87026948
0.16612752
0.01996589
1.13350177
0.18488842
0.02706628
0.95016479
0.36509550
-0.04422095
0.57115918
0.37814870
-0.16703063
0.61483556
0.40514797
-0.15082532
0.65689498
0.66842365
0.08859684
0.86819565
0.36035505
-0.17553520
0.59623575
0.12374571
-0.12617964
0.64124250
0.25831723
-0.08564989
0.62952173
0.37689444
-0.18116552
0.73720253
0.58425820
-0.06753898
0.46268284
0.36215144
-0.11862162
0.48691311
0.30049124
0.17721261
0.93598425
0.09685239
-0.31031299
0.51926178
0.44641367
-0.12690020
0.71340221
0.29290923
-0.14742912
1.07891357
0.08178470
-0.57304144
0.81078660
0.33179933
-0.26143491
0.65580922
0.19070227
0.09710595
0.45046979
0.31181663
0.47220144
1.01168895
0.27901578
0.37086532
0.56338155
0.01436350
0.32223469
0.50636888
-0.06264119
0.34381115
0.19874142
0.09723586
-0.48187748
0.81564903
0.07730773
-0.07849247
0.41099444
0.04538465
-0.10898419
0.70473319
0.04352984
0.29553005
0.83909178
-0.11998463
-0.30998823
1.09824908
-0.09342183
-0.32575795
0.83268338
-0.36098316
-0.62208039
1.33142591
-0.11577008
-0.70449978
1.22469199
0.18519057
0.07661299
1.13279128
0.69164336
-0.07624549
1.25966048
-0.02962967
-0.39921737
0.61014462
-0.14818656
-0.35776839
0.52278882
-0.21952318
-0.43468335
1.41341352
0.43518242
-0.35809588
1.03523993
0.83669072
0.10611168
1.06851017
-0.11470826
-0.23412633
0.52877736
0.02365391
-0.38082415
0.99948275
0.06092539
-0.23342440
0.97184259
0.17260258
-0.49241519
0.69902682
0.51126111
-0.57255352
0.95295775
0.22110350
0.34516963
0.10894942
0.15370792
0.21309060
0.35636637
0.11872098
0.11242800
0.08111909
0.14768411
0.09672685
0.16103064
0.46781018
0.28842869
0.24671620
0.62675291
0.26323903
0.12771127
0.72558904
0.36758742
0.41657564
0.37453607
0.26445711
0.22526243
0.58195841
0.24970755
0.30786023
1.06272173
0.26297641
0.53845221
0.67095482
0.30986348
0.24545853
0.90677190
0.35793811
0.27902472
0.76632363
0.31360489
0.45355362
0.85766268
0.35357741
0.53668648
0.73819113
0.05662733
0.17212918
0.68210363
0.42926815
0.25182217
1.19807363
0.48532835
0.56243622
1.27104115
0.56679004
0.57841778
0.90316761
0.19313633
0.42225456
0.77619338
0.02593046
0.31954420
0.80174929
0.34476757
0.24648428
1.38489211
0.44369873
0.49604756
1.26019013
0.10690264
0.35390550
1.21243954
0.40560883
0.40000287
1.13468301
0.20916158
0.63439709
0.16327432
0.20592083
0.07108626
0.19356215
0.69814110
0.41256431
0.42404243
0.24806000
0.56011856
0.30793750
0.12406852
0.47263443
0.05193109
0.10694780
0.60334897
0.01067983
-0.43366846
0.61003786
0.64998090
0.31688553
0.89040792
0.68343532
0.19673993
0.64136124
0.11580989
0.02797732
0.50054586
-0.05243471
-0.37770748
1.19610679
0.00001702
-0.21867520
0.83214140
-0.08309092
-0.46906051
0.63649416
-0.03886189
-0.05561838
0.53807777
-0.00548340
-0.37446910
0.87089670
0.48398590
-0.21908545
0.82201779
-0.18210694
-0.27567020
0.53712690
-0.62472725
-0.27116430
0.85636139
-0.41178215
-0.42668986
1.03027451
-0.00421759
-0.31876227
0.94009268
0.49288055
-0.14563018
1.28258276
-0.26546633
-0.65823293
0.68806392
-0.46948037
-0.59934223
1.36555219
-0.46536660
-0.53725380
1.50820315
0.14105335
-0.55584586
1.27062106
-0.02964586
-0.54287028
0.94697970
-0.00270372
-0.04980172
0.16389512
-0.03352305
0.25072396
0.48518506
0.03270829
0.48585570
0.74956328
0.37140802
0.39106765
1.03012741
0.38622570
0.44345036
0.85582960
-0.06172875
-0.49330160
0.77142900
0.00693663
-0.44675803
1.24275017
-0.06796826
0.00649795
0.96044409
0.36636180
-0.13739578
0.55469227
-0.20882951
-0.37861621
0.05725491
0.15963227
-0.14747387
0.62561417
-0.34614155
-0.62563825
0.48272273
0.44886625
0.19040374
0.96020854
0.34005123
-0.17416461
1.16295159
-0.00890839
-0.37907091
1.39060485
0.27217054
0.03462756
0.44149846
0.13910741
-0.16167319
0.68182659
0.64886212
-0.01234379
0.79389983
0.59946340
0.03585331
1.32248771
-0.06035870
-0.57608211
1.14143860
0.07524349
-0.17043351
0.58041918
0.44805926
-0.01872258
0.81561428
0.49597293
-0.23687604
1.03509605
0.20886771
-0.44456074
0.45583558
-0.40306744
-0.34356713
1.06757903
0.22057390
0.15666758
0.25962871
0.21227694
0.21540360
0.78017759
0.22015063
0.38483849
0.64716160
0.08601861
0.54188693
0.93207026
0.28053465
0.48352203
0.88902259
0.34747547
-0.27713725
0.66017032
0.52645350
-0.22550449
0.80439162
0.03605431
0.25478104
0.82225347
0.50498849
-0.11683586
1.02697921
0.68192548
-0.17568865
1.18595839
0.19003709
0.01099226
0.64015013
-0.32267073
-0.59403211
0.35763031
0.02129600
-0.28696746
0.53222418
0.60432720
0.59551305
1.15532541
0.66232359
-0.05477519
0.97038603
0.16065380
-0.19188547
0.48197317
0.06224696
0.12593506
1.00601065
-0.25604194
-0.56378853
1.28444910
-0.19044030
-0.46606895
0.78274214
-0.19284327
-0.19278350
0.68300426
0.08584334
-0.25057408
0.62275374
0.22070456
-0.36883146
0.32670385
-0.06109656
-0.18043512
1.12084341
-0.06898614
-0.57441711
1.25176275
0.49138814
-0.03177461
0.93284237
-0.02680527
-0.15991624
0.20563905
0.00535886
0.20295435
0.49304086
0.04384270
0.22859469
0.68087637
-0.24907075
0.19545972
0.77582347
-0.16026857
0.33764508
0.62366217
-0.17237896
-0.55020392
0.86963183
0.15980154
-0.46075583
1.10049367
0.16866779
-0.05309910
1.15353858
-0.68857157
-0.44636256
1.06641817
-0.37709963
-0.36099160
1.51272607
0.10370487
-0.02722660
0.49200800
-0.04698700
-0.20448203
0.44706684
0.32499796
-0.53339434
0.83809447
0.14773181
-0.64435506
1.25578320
-0.61801589
-0.46807501
0.63289607
-0.11023737
-0.20377776
0.52505481
0.48179728
0.42263401
1.01227844
0.47840846
0.15245956
0.97464311
-0.34275240
-0.72840738
0.63554341
0.14910451
-0.33083403
1.10131192
0.19756356
-0.20523152
0.61730188
0.02063553
-0.49584988
0.90921897
0.05859888
-0.27836272
0.57446897
-0.07972637
-0.16719104
0.74144793
0.26997131
-0.35476014
1.29357493
