0.42958629
0.28224394
0.15103287
0.48167032
0.36082333
0.59347302
0.34380847
0.39800683
0.41173065
0.52342486
0.31059879
0.43141603
0.66047782
0.22265720
0.55991107
0.69955993
0.13417156
0.23501645
1.02011216
0.10855398
0.12099860
0.80453974
0.25312117
0.32463652
0.91691482
0.31367505
0.28434283
1.12851310
0.28936180
0.26333889
0.46367764
0.38185787
0.27437773
0.69665909
0.16765723
0.26580626
0.66372275
0.13793197
0.20647633
0.59306312
0.27899358
0.26687509
1.10032856
0.43964416
0.49983919
0.39900905
0.10285748
0.08066194
0.98059517
0.39729136
0.27421844
0.98668158
0.43646473
0.57053614
0.55255461
0.00507033
0.31699151
0.83300710
0.30240855
0.13883874
0.61145091
0.36965778
0.24377143
0.96508646
0.14595996
0.58437294
1.00838709
0.08416238
0.17597395
0.60781932
0.09389448
0.11626309
0.66440946
0.40730387
0.38658243
-0.11545257
-0.11354543
0.27584475
0.06937817
0.26075086
0.50911385
-0.02431236
0.35000008
0.36551923
-0.03346947
0.43159193
0.60590702
-0.01362193
0.18328339
1.08957994
-0.14045250
-0.47575340
0.85576147
0.06457274
-0.34329820
1.28040254
0.06262416
-0.40406686
0.88148636
0.30310133
-0.41595578
1.25727451
-0.25885004
-0.61401975
0.67670810
0.14040449
-0.08464809
0.43163684
-0.17696141
-0.20929596
0.43142343
0.19234261
0.07454749
0.71717548
0.17322688
-0.33946732
0.42228913
-0.58395696
-0.18270400
0.99511027
0.14586264
-0.08569351
0.50885165
0.20451303
-0.12064213
1.31673598
0.09283513
0.06959350
1.19687331
0.05824875
0.11749691
0.73006153
0.10974647
-0.34364200
0.91197628
0.15841411
-0.01228958
0.61970448
0.20247629
-0.00109056
1.12576568
0.18317066
-0.72844678
1.13181889
0.28049541
-0.06946570
0.56025314
0.51743770
0.42413008
0.87928402
0.19180229
0.06565242
0.20363832
-0.00581344
0.01015962
0.75413245
0.32937974
0.20064771
0.52271909
-0.00162771
0.13993885
0.56047243
0.07371853
0.28317699
0.52188921
0.29538175
-0.18247479
0.55680549
0.12596850
-0.38389573
0.79512131
-0.03530237
-0.07463934
1.00653112
0.18119426
-0.51358676
1.21040261
0.15186574
-0.11849296
0.65433162
0.27512759
0.00711747
0.57091355
-0.08214155
-0.38092703
0.68203151
0.02805683
-0.23245260
0.86112994
-0.12790963
-0.21565820
0.16964252
-0.00469778
0.08573633
0.43732503
-0.04305950
-0.29200283
0.46258268
-0.13188639
-0.08773723
0.67316270
-0.08742119
0.21496366
0.69689786
-0.08875108
0.06415752
0.57597429
-0.31076446
-0.10220509
0.86483675
-0.02685502
-0.40258357
0.53930336
-0.54893720
-0.60768288
0.81702071
-0.22722003
-0.14592703
0.94696641
0.30679289
-0.14174151
1.23830593
-0.10630597
-0.29087976
0.99013728
0.25027594
0.09581506
0.35525647
0.20231296
0.24070877
0.80562806
-0.02276893
0.14127542
0.50103265
0.13815781
0.45010981
0.80631447
0.09175956
0.42305309
0.91268057
0.34602791
-0.06749833
0.92611182
0.30807287
-0.16968483
0.87026948
0.16612752
0.01996586
1.13350177
0.18488845
0.02706639
0.95016468
0.36509550
-0.04422095
0.57115924
0.37814870
-0.16703060
0.61483550
0.40514797
-0.15082532
0.65689504
0.66842359
0.08859688
0.86819571
0.36035508
-0.17553519
0.59623575
0.12374574
-0.12617962
0.64124250
0.25831729
-0.08564988
0.62952173
0.37689447
-0.18116552
0.73720253
0.58425820
-0.06753893
0.46268275
0.36215144
-0.11862163
0.48691308
0.30049127
0.17721263
0.93598419
0.09685241
-0.31031299
0.51926178
0.44641370
-0.12690017
0.71340215
0.29290923
-0.14742912
1.07891345
0.08178467
-0.57304144
0.81078666
0.33179933
-0.26143485
0.65580922
0.19070226
0.09710598
0.45046979
0.31181660
0.47220147
1.01168895
0.27901578
0.37086532
0.56338161
0.01436348
0.32223469
0.50636888
-0.06264120
0.34381115
0.19874141
0.09723580
-0.48187748
0.81564903
0.07730779
-0.07849246
0.41099444
0.04538462
-0.10898416
0.70473319
0.04352985
0.29553005
0.83909178
-0.11998454
-0.30998832
1.09824908
-0.09342182
-0.32575792
0.83268338
-0.36098310
-0.62208045
1.33142591
-0.11577010
-0.70449984
1.22469187
0.18519057
0.07661304
1.13279140
0.69164324
-0.07624546
1.25966048
-0.02962967
-0.39921737
0.61014462
-0.14818662
-0.35776842
0.52278888
-0.21952313
-0.43468329
1.41341341
0.43518245
-0.35809588
1.03523993
0.83669066
0.10611166
1.06851017
-0.11470827
-0.23412636
0.52877736
0.02365384
-0.38082415
0.99948275
0.06092540
-0.23342443
0.97184247
0.17260264
-0.49241516
0.69902676
0.51126111
-0.57255352
0.95295775
0.22110350
0.34516963
0.10894942
0.15370792
0.21309060
0.35636637
0.11872098
0.11242800
0.08111909
0.14768413
0.09672685
0.16103064
0.46781018
0.28842869
0.24671620
0.62675291
0.26323906
0.12771127
0.72558898
0.36758745
0.41657567
0.37453610
0.26445711
0.22526243
0.58195841
0.24970755
0.30786023
1.06272173
0.26297638
0.53845227
0.67095482
0.30986351
0.24545853
0.90677190
0.35793808
0.27902472
0.76632369
0.31360489
0.45355365
0.85766280
0.35357744
0.53668648
0.73819107
0.05662733
0.17212920
0.68210363
0.42926815
0.25182217
1.19807363
0.48532832
0.56243622
1.27104127
0.56679004
0.57841772
0.90316761
0.19313632
0.42225453
0.77619332
0.02593045
0.31954420
0.80174923
0.34476757
0.24648428
1.38489211
0.44369876
0.49604756
1.26019025
0.10690267
0.35390550
1.21243954
0.40560880
0.40000284
1.13468301
0.20916153
0.63439703
0.16327432
0.20592083
0.07108627
0.19356218
0.69814110
0.41256431
0.42404243
0.24806000
0.56011850
0.30793750
0.12406852
0.47263443
0.05193110
0.10694779
0.60334891
0.01067981
-0.43366846
0.61003786
0.64998090
0.31688553
0.89040786
0.68343520
0.19673996
0.64136124
0.11580989
0.02797733
0.50054574
-0.05243471
-0.37770748
1.19610679
0.00001708
-0.21867523
0.83214146
-0.08309089
-0.46906048
0.63649410
-0.03886192
-0.05561838
0.53807777
-0.00548337
-0.37446910
0.87089670
0.48398590
-0.21908543
0.82201785
-0.18210697
-0.27567023
0.53712690
-0.62472719
-0.27116430
0.85636133
-0.41178218
-0.42668986
1.03027451
-0.00421757
-0.31876224
0.94009268
0.49288064
-0.14563024
1.28258288
-0.26546627
-0.65823293
0.68806392
-0.46948034
-0.59934223
1.36555195
-0.46536660
-0.53725380
1.50820327
0.14105335
-0.55584592
1.27062118
-0.02964592
-0.54287016
0.94697964
-0.00270371
-0.04980173
0.16389512
-0.03352305
0.25072396
0.48518503
0.03270829
0.48585567
0.74956322
0.37140802
0.39106762
1.03012741
0.38622567
0.44345033
0.85582948
-0.06172875
-0.49330157
0.77142900
0.00693670
-0.44675812
1.24275017
-0.06796825
0.00649798
0.96044409
0.36636174
-0.13739583
0.55469227
-0.20882943
-0.37861615
0.05725489
0.15963228
-0.14747390
0.62561417
-0.34614158
-0.62563837
0.48272270
0.44886622
0.19040373
0.96020854
0.34005126
-0.17416462
1.16295171
-0.00890833
-0.37907094
1.39060473
0.27217051
0.03462759
0.44149846
0.13910741
-0.16167319
0.68182659
0.64886212
-0.01234379
0.79389989
0.59946340
0.03585336
1.32248771
-0.06035872
-0.57608205
1.14143872
0.07524348
-0.17043352
0.58041924
0.44805929
-0.01872256
0.81561422
0.49597293
-0.23687604
1.03509617
0.20886767
-0.44456065
0.45583564
-0.40306759
-0.34356710
1.06757891
0.22057390
0.15666759
0.25962871
0.21227694
0.21540360
0.78017753
0.22015063
0.38483852
0.64716160
0.08601865
0.54188687
0.93207031
0.28053463
0.48352203
0.88902265
0.34747547
-0.27713725
0.66017032
0.52645355
-0.22550449
0.80439156
0.03605434
0.25478104
0.82225358
0.50498843
-0.11683580
1.02697933
0.68192548
-0.17568862
1.18595850
0.19003707
0.01099226
0.64015013
-0.32267073
-0.59403211
0.35763025
0.02129601
-0.28696746
0.53222430
0.60432714
0.59551305
1.15532541
0.66232359
-0.05477518
0.97038609
0.16065386
-0.19188546
0.48197320
0.06224698
0.12593505
1.00601065
-0.25604200
-0.56378859
1.28444898
-0.19044030
-0.46606898
0.78274214
-0.19284326
-0.19278350
0.68300420
0.08584334
-0.25057405
0.62275368
0.22070453
-0.36883146
0.32670379
-0.06109655
-0.18043518
1.12084353
-0.06898615
-0.57441711
1.25176275
0.49138808
-0.03177461
0.93284237
-0.02680527
-0.15991625
0.20563905
0.00535884
0.20295435
0.49304083
0.04384270
0.22859469
0.68087637
-0.24907079
0.19545975
0.77582347
-0.16026857
0.33764508
0.62366217
-0.17237891
-0.55020392
0.86963177
0.15980154
-0.46075577
1.10049367
0.16866782
-0.05309916
1.15353870
-0.68857169
-0.44636250
1.06641817
-0.37709972
-0.36099157
1.51272619
0.10370487
-0.02722661
0.49200803
-0.04698697
-0.20448206
0.44706684
0.32499790
-0.53339446
0.83809447
0.14773181
-0.64435500
1.25578308
-0.61801583
-0.46807504
0.63289607
-0.11023739
-0.20377776
0.52505475
0.48179731
0.42263401
1.01227832
0.47840846
0.15245959
0.97464317
-0.34275240
-0.72840738
0.63554335
0.14910454
-0.33083406
1.10131192
0.19756356
-0.20523153
0.61730188
0.02063549
-0.49584982
0.90921897
0.05859887
-0.27836266
0.57446891
-0.07972640
-0.16719107
0.74144793
0.26997134
-0.35475999
1.29357481
